#ifndef WEIGHTS_H
#define WEIGHTS_H

float W1_Soft[784][128] = {
    {0.0050f, -0.0014f, 0.0065f, 0.0152f, -0.0023f, -0.0023f, 0.0158f, 0.0077f, -0.0047f, 0.0054f, -0.0046f, -0.0047f, 0.0024f, -0.0191f, -0.0172f, -0.0056f, -0.0101f, 0.0031f, -0.0091f, -0.0141f, 0.0147f, -0.0023f, 0.0007f, -0.0142f, -0.0054f, 0.0011f, -0.0115f, 0.0038f, -0.0060f, -0.0029f, -0.0060f, 0.0185f, -0.0001f, -0.0106f, 0.0082f, -0.0122f, 0.0021f, -0.0196f, -0.0133f, 0.0020f, 0.0074f, 0.0017f, -0.0012f, -0.0030f, -0.0148f, -0.0072f, -0.0046f, 0.0106f, 0.0034f, -0.0176f, 0.0032f, -0.0039f, -0.0068f, 0.0061f, 0.0103f, 0.0093f, -0.0084f, -0.0031f, 0.0033f, 0.0098f, -0.0048f, -0.0019f, -0.0111f, -0.0120f, 0.0081f, 0.0136f, -0.0007f, 0.0100f, 0.0036f, -0.0065f, 0.0036f, 0.0154f, -0.0004f, 0.0156f, -0.0262f, 0.0082f, 0.0009f, -0.0030f, 0.0009f, -0.0199f, -0.0022f, 0.0036f, 0.0148f, -0.0052f, -0.0081f, -0.0050f, 0.0092f, 0.0033f, -0.0053f, 0.0051f, 0.0010f, 0.0097f, -0.0070f, -0.0033f, -0.0039f, -0.0146f, 0.0030f, 0.0026f, 0.0001f, -0.0023f, -0.0142f, -0.0042f, -0.0034f, -0.0080f, -0.0016f, 0.0040f, 0.0189f, 0.0017f, 0.0026f, -0.0007f, -0.0192f, -0.0003f, 0.0006f, 0.0246f, -0.0019f, 0.0030f, -0.0003f, -0.0117f, 0.0114f, 0.0075f, 0.0079f, -0.0091f, 0.0140f, -0.0140f, 0.0059f, 0.0219f, -0.0099f, -0.0057f},
    {0.0010f, -0.0050f, -0.0155f, 0.0007f, -0.0106f, 0.0047f, -0.0092f, 0.0155f, -0.0078f, -0.0032f, 0.0081f, -0.0123f, 0.0023f, 0.0131f, -0.0161f, 0.0018f, 0.0026f, 0.0078f, -0.0124f, -0.0132f, 0.0052f, 0.0030f, 0.0025f, 0.0035f, -0.0068f, 0.0023f, 0.0029f, -0.0071f, 0.0187f, 0.0047f, -0.0119f, 0.0066f, -0.0097f, 0.0079f, 0.0116f, -0.0082f, 0.0096f, 0.0041f, 0.0082f, 0.0190f, -0.0025f, -0.0075f, -0.0089f, -0.0082f, -0.0008f, 0.0034f, 0.0028f, 0.0083f, 0.0001f, 0.0145f, -0.0026f, 0.0272f, 0.0063f, -0.0086f, -0.0107f, 0.0048f, -0.0022f, 0.0071f, 0.0047f, -0.0007f, -0.0085f, -0.0151f, -0.0045f, 0.0086f, 0.0021f, -0.0125f, 0.0017f, 0.0039f, -0.0088f, 0.0015f, 0.0006f, -0.0114f, 0.0036f, 0.0056f, 0.0108f, 0.0105f, -0.0138f, -0.0094f, 0.0052f, 0.0051f, 0.0052f, 0.0385f, 0.0057f, 0.0114f, 0.0095f, 0.0065f, -0.0032f, 0.0076f, -0.0077f, -0.0024f, -0.0049f, 0.0008f, 0.0231f, -0.0187f, 0.0069f, -0.0161f, -0.0047f, 0.0109f, 0.0006f, -0.0108f, -0.0072f, 0.0068f, -0.0073f, 0.0022f, 0.0005f, -0.0065f, 0.0214f, 0.0063f, -0.0203f, 0.0019f, -0.0066f, 0.0085f, -0.0079f, -0.0011f, 0.0050f, 0.0087f, -0.0120f, -0.0033f, -0.0047f, -0.0065f, 0.0177f, 0.0040f, -0.0126f, 0.0092f, 0.0212f, 0.0103f, -0.0152f, -0.0048f},
    {0.0127f, -0.0071f, 0.0044f, 0.0077f, -0.0093f, -0.0006f, -0.0324f, -0.0102f, -0.0025f, -0.0125f, 0.0163f, -0.0143f, -0.0044f, 0.0013f, 0.0144f, -0.0144f, 0.0116f, 0.0001f, -0.0098f, 0.0046f, 0.0020f, -0.0060f, 0.0007f, -0.0039f, 0.0011f, 0.0066f, 0.0159f, -0.0124f, 0.0213f, -0.0195f, -0.0015f, 0.0059f, 0.0028f, -0.0062f, -0.0021f, -0.0049f, -0.0059f, 0.0085f, 0.0036f, -0.0069f, 0.0090f, 0.0031f, 0.0081f, 0.0063f, -0.0083f, -0.0056f, 0.0075f, 0.0061f, -0.0002f, 0.0012f, 0.0128f, -0.0059f, 0.0055f, -0.0020f, -0.0022f, 0.0110f, 0.0083f, 0.0081f, 0.0131f, 0.0002f, 0.0068f, -0.0031f, 0.0032f, -0.0013f, 0.0010f, 0.0060f, -0.0082f, 0.0209f, -0.0101f, -0.0121f, 0.0116f, 0.0079f, 0.0062f, 0.0063f, -0.0001f, -0.0090f, 0.0008f, -0.0068f, 0.0098f, -0.0015f, -0.0083f, -0.0032f, 0.0041f, -0.0056f, -0.0082f, 0.0024f, 0.0024f, -0.0051f, -0.0047f, 0.0023f, -0.0145f, -0.0141f, -0.0072f, -0.0021f, 0.0031f, 0.0148f, 0.0086f, -0.0016f, -0.0002f, -0.0100f, -0.0002f, -0.0029f, 0.0032f, -0.0083f, 0.0052f, 0.0153f, -0.0011f, 0.0040f, 0.0069f, -0.0040f, 0.0022f, 0.0001f, 0.0010f, -0.0077f, 0.0002f, 0.0050f, 0.0145f, 0.0096f, 0.0215f, -0.0077f, 0.0087f, 0.0018f, 0.0219f, -0.0081f, -0.0084f, -0.0060f, -0.0212f, -0.0053f},
    {-0.0076f, 0.0015f, 0.0034f, 0.0188f, 0.0095f, -0.0058f, -0.0090f, 0.0049f, -0.0132f, 0.0183f, 0.0118f, -0.0047f, -0.0171f, 0.0135f, -0.0011f, 0.0124f, -0.0159f, -0.0060f, 0.0001f, 0.0005f, -0.0045f, 0.0062f, -0.0107f, -0.0014f, 0.0012f, 0.0051f, 0.0071f, -0.0112f, -0.0153f, 0.0128f, 0.0033f, -0.0075f, 0.0155f, 0.0012f, 0.0118f, 0.0007f, 0.0206f, 0.0176f, -0.0025f, 0.0097f, 0.0065f, 0.0137f, -0.0096f, 0.0069f, 0.0106f, -0.0176f, -0.0118f, -0.0204f, -0.0027f, 0.0072f, 0.0150f, 0.0007f, 0.0163f, -0.0138f, -0.0170f, -0.0006f, 0.0038f, -0.0003f, -0.0207f, -0.0009f, -0.0130f, 0.0067f, 0.0037f, -0.0094f, -0.0051f, -0.0106f, -0.0006f, 0.0096f, -0.0099f, 0.0050f, -0.0053f, -0.0079f, -0.0011f, -0.0104f, -0.0055f, -0.0120f, 0.0196f, 0.0004f, -0.0070f, 0.0021f, -0.0011f, -0.0022f, 0.0061f, 0.0076f, -0.0053f, -0.0058f, -0.0028f, -0.0230f, -0.0152f, 0.0137f, 0.0164f, -0.0025f, 0.0058f, 0.0031f, 0.0308f, 0.0112f, -0.0013f, -0.0096f, -0.0161f, 0.0020f, -0.0076f, -0.0142f, -0.0065f, -0.0108f, 0.0169f, 0.0088f, -0.0001f, 0.0148f, 0.0008f, -0.0086f, 0.0152f, 0.0054f, -0.0104f, -0.0019f, -0.0088f, -0.0138f, 0.0093f, 0.0191f, -0.0140f, 0.0056f, -0.0065f, -0.0049f, -0.0059f, -0.0086f, 0.0005f, -0.0083f, 0.0027f, -0.0005f},
    {-0.0024f, -0.0091f, -0.0058f, 0.0076f, 0.0050f, -0.0098f, 0.0010f, 0.0075f, -0.0167f, 0.0054f, -0.0066f, 0.0057f, -0.0076f, -0.0180f, -0.0163f, 0.0005f, 0.0026f, -0.0090f, 0.0064f, -0.0166f, -0.0007f, -0.0121f, -0.0065f, 0.0005f, -0.0086f, -0.0038f, 0.0101f, -0.0058f, 0.0084f, -0.0113f, 0.0053f, 0.0144f, -0.0247f, -0.0080f, 0.0058f, -0.0020f, 0.0037f, -0.0060f, 0.0009f, -0.0016f, 0.0117f, 0.0025f, 0.0034f, -0.0041f, -0.0049f, -0.0043f, 0.0039f, -0.0042f, 0.0029f, 0.0208f, 0.0087f, -0.0033f, 0.0120f, -0.0041f, -0.0204f, -0.0101f, -0.0187f, -0.0035f, 0.0002f, 0.0168f, 0.0033f, -0.0022f, 0.0083f, -0.0221f, 0.0024f, 0.0077f, -0.0148f, 0.0114f, 0.0034f, -0.0042f, 0.0063f, 0.0227f, 0.0018f, 0.0025f, -0.0046f, -0.0085f, 0.0083f, -0.0086f, 0.0007f, -0.0048f, 0.0048f, 0.0033f, 0.0104f, -0.0051f, -0.0027f, -0.0098f, -0.0044f, 0.0038f, 0.0076f, -0.0092f, 0.0087f, 0.0136f, 0.0041f, 0.0188f, -0.0077f, -0.0124f, -0.0178f, 0.0150f, 0.0065f, -0.0006f, 0.0028f, -0.0113f, 0.0245f, 0.0013f, 0.0011f, 0.0073f, 0.0048f, 0.0022f, -0.0079f, 0.0047f, 0.0188f, 0.0135f, 0.0159f, -0.0051f, -0.0099f, -0.0013f, 0.0006f, 0.0109f, -0.0169f, 0.0153f, -0.0016f, -0.0043f, -0.0101f, -0.0165f, 0.0082f, 0.0007f, -0.0129f, -0.0130f},
    {-0.0034f, 0.0167f, -0.0026f, -0.0150f, -0.0025f, -0.0027f, -0.0270f, -0.0005f, -0.0023f, 0.0070f, 0.0185f, 0.0113f, -0.0027f, -0.0111f, 0.0257f, 0.0006f, 0.0001f, -0.0002f, 0.0020f, -0.0014f, -0.0057f, -0.0055f, -0.0003f, -0.0054f, -0.0071f, 0.0011f, -0.0025f, 0.0150f, -0.0265f, 0.0109f, 0.0125f, -0.0207f, -0.0034f, -0.0037f, -0.0141f, -0.0078f, -0.0111f, 0.0175f, 0.0094f, 0.0127f, 0.0072f, -0.0113f, -0.0052f, 0.0049f, -0.0122f, 0.0071f, -0.0024f, -0.0037f, 0.0071f, 0.0044f, -0.0036f, 0.0116f, -0.0108f, 0.0062f, 0.0059f, -0.0031f, 0.0033f, -0.0125f, 0.0092f, -0.0018f, -0.0052f, 0.0105f, -0.0070f, -0.0141f, -0.0156f, 0.0061f, -0.0128f, 0.0175f, -0.0208f, 0.0170f, 0.0021f, -0.0010f, -0.0054f, 0.0040f, -0.0004f, 0.0110f, 0.0011f, 0.0015f, -0.0036f, -0.0006f, 0.0031f, -0.0171f, -0.0135f, 0.0074f, 0.0017f, -0.0018f, 0.0002f, 0.0035f, -0.0054f, -0.0078f, 0.0020f, -0.0098f, 0.0041f, -0.0170f, 0.0103f, 0.0047f, 0.0026f, 0.0098f, 0.0167f, 0.0101f, -0.0184f, -0.0128f, -0.0062f, 0.0003f, 0.0052f, -0.0073f, 0.0019f, -0.0076f, -0.0061f, -0.0141f, -0.0092f, -0.0135f, -0.0098f, 0.0105f, -0.0095f, 0.0263f, 0.0049f, 0.0018f, -0.0086f, 0.0070f, -0.0058f, 0.0012f, 0.0256f, -0.0010f, 0.0115f, -0.0070f, -0.0003f, 0.0177f},
    {-0.0063f, 0.0181f, 0.0071f, -0.0056f, 0.0063f, 0.0097f, 0.0062f, -0.0157f, -0.0073f, -0.0025f, -0.0007f, 0.0062f, 0.0018f, -0.0134f, 0.0038f, 0.0061f, 0.0056f, 0.0108f, 0.0083f, 0.0046f, -0.0007f, -0.0166f, 0.0043f, 0.0021f, 0.0027f, -0.0128f, -0.0108f, 0.0105f, -0.0004f, 0.0068f, 0.0003f, 0.0003f, 0.0094f, -0.0052f, 0.0010f, -0.0046f, -0.0043f, -0.0031f, 0.0022f, -0.0048f, 0.0126f, -0.0089f, -0.0019f, -0.0044f, 0.0145f, 0.0020f, 0.0103f, -0.0149f, 0.0027f, 0.0089f, 0.0008f, 0.0107f, -0.0052f, 0.0141f, 0.0230f, -0.0036f, -0.0045f, 0.0145f, 0.0158f, -0.0052f, -0.0042f, -0.0028f, -0.0134f, -0.0092f, -0.0100f, -0.0077f, -0.0003f, 0.0023f, 0.0155f, -0.0100f, 0.0098f, -0.0021f, -0.0005f, 0.0067f, -0.0112f, 0.0038f, 0.0017f, 0.0049f, 0.0029f, 0.0246f, -0.0064f, -0.0053f, -0.0062f, -0.0056f, -0.0064f, 0.0119f, 0.0142f, -0.0057f, -0.0083f, 0.0047f, -0.0055f, 0.0063f, 0.0020f, -0.0152f, 0.0155f, 0.0180f, -0.0061f, -0.0039f, 0.0029f, 0.0033f, 0.0066f, 0.0201f, -0.0018f, -0.0080f, -0.0138f, -0.0073f, -0.0003f, 0.0179f, -0.0052f, 0.0022f, -0.0002f, 0.0119f, 0.0253f, -0.0053f, -0.0049f, 0.0104f, 0.0068f, 0.0185f, 0.0058f, -0.0036f, 0.0059f, 0.0111f, 0.0082f, 0.0051f, 0.0107f, 0.0117f, 0.0138f, 0.0065f},
    {-0.0017f, 0.0015f, 0.0121f, -0.0082f, 0.0037f, -0.0039f, 0.0003f, 0.0128f, 0.0019f, 0.0005f, -0.0136f, 0.0075f, 0.0065f, 0.0216f, -0.0031f, 0.0022f, 0.0025f, 0.0158f, -0.0010f, 0.0028f, 0.0061f, 0.0019f, -0.0045f, 0.0019f, 0.0107f, -0.0103f, 0.0013f, -0.0070f, 0.0120f, -0.0152f, -0.0056f, 0.0038f, 0.0157f, -0.0007f, -0.0056f, 0.0188f, -0.0145f, -0.0220f, 0.0044f, -0.0050f, -0.0102f, 0.0071f, 0.0024f, -0.0056f, -0.0128f, 0.0087f, 0.0065f, -0.0010f, 0.0185f, -0.0107f, -0.0153f, -0.0069f, -0.0005f, 0.0024f, -0.0024f, 0.0035f, -0.0125f, 0.0144f, -0.0008f, 0.0112f, 0.0034f, 0.0046f, 0.0057f, 0.0045f, 0.0064f, 0.0133f, 0.0020f, 0.0071f, -0.0009f, 0.0144f, -0.0068f, 0.0180f, -0.0004f, -0.0143f, 0.0013f, -0.0068f, 0.0084f, -0.0065f, -0.0045f, -0.0189f, -0.0045f, -0.0242f, -0.0158f, 0.0076f, 0.0079f, 0.0043f, -0.0097f, -0.0005f, -0.0000f, -0.0116f, 0.0150f, 0.0088f, -0.0022f, 0.0003f, 0.0021f, -0.0204f, -0.0025f, -0.0068f, -0.0100f, -0.0028f, 0.0180f, 0.0064f, -0.0057f, 0.0057f, 0.0140f, 0.0092f, 0.0006f, -0.0065f, 0.0070f, 0.0039f, 0.0090f, 0.0064f, 0.0105f, -0.0054f, 0.0132f, 0.0020f, 0.0208f, -0.0069f, 0.0174f, 0.0020f, -0.0065f, -0.0048f, -0.0032f, 0.0042f, 0.0052f, -0.0057f, -0.0002f, 0.0214f},
    {0.0173f, 0.0044f, 0.0004f, 0.0012f, 0.0061f, -0.0102f, -0.0026f, -0.0167f, 0.0040f, 0.0065f, -0.0048f, 0.0157f, -0.0123f, -0.0146f, 0.0022f, 0.0105f, 0.0168f, -0.0046f, 0.0108f, -0.0004f, -0.0017f, 0.0088f, 0.0065f, -0.0158f, 0.0148f, 0.0138f, -0.0063f, 0.0040f, 0.0049f, 0.0026f, -0.0055f, -0.0067f, -0.0003f, 0.0117f, 0.0054f, -0.0037f, 0.0077f, -0.0285f, 0.0115f, -0.0174f, -0.0036f, -0.0112f, -0.0129f, 0.0116f, -0.0047f, 0.0035f, -0.0005f, 0.0048f, 0.0008f, -0.0128f, 0.0100f, -0.0049f, -0.0156f, -0.0043f, 0.0150f, 0.0085f, -0.0035f, -0.0035f, -0.0032f, 0.0208f, 0.0038f, 0.0043f, 0.0103f, 0.0024f, -0.0026f, -0.0020f, -0.0007f, -0.0004f, 0.0073f, 0.0005f, 0.0073f, -0.0008f, 0.0008f, -0.0200f, 0.0092f, 0.0035f, 0.0100f, -0.0290f, 0.0209f, -0.0014f, 0.0111f, -0.0104f, 0.0061f, -0.0105f, -0.0062f, 0.0191f, -0.0019f, 0.0022f, 0.0087f, 0.0050f, 0.0015f, 0.0036f, 0.0240f, -0.0006f, 0.0020f, 0.0105f, 0.0111f, 0.0119f, 0.0064f, -0.0114f, 0.0163f, -0.0115f, 0.0030f, -0.0075f, -0.0006f, 0.0033f, 0.0032f, 0.0042f, 0.0161f, 0.0045f, -0.0024f, 0.0096f, 0.0119f, -0.0123f, 0.0060f, 0.0070f, -0.0030f, 0.0138f, -0.0015f, 0.0013f, -0.0017f, 0.0002f, -0.0110f, -0.0144f, 0.0159f, -0.0085f, -0.0099f, -0.0215f},
    {-0.0064f, -0.0132f, 0.0164f, 0.0101f, -0.0069f, 0.0225f, 0.0098f, -0.0032f, -0.0250f, 0.0229f, -0.0139f, -0.0165f, 0.0102f, 0.0244f, 0.0138f, 0.0056f, 0.0059f, 0.0085f, 0.0076f, 0.0028f, 0.0010f, -0.0006f, -0.0075f, -0.0028f, -0.0169f, -0.0010f, -0.0099f, -0.0110f, 0.0018f, 0.0139f, 0.0092f, -0.0157f, -0.0099f, 0.0094f, -0.0098f, -0.0022f, 0.0055f, -0.0097f, 0.0011f, -0.0133f, -0.0060f, 0.0032f, -0.0159f, 0.0044f, -0.0002f, 0.0055f, 0.0022f, 0.0136f, 0.0013f, -0.0043f, 0.0012f, 0.0054f, 0.0005f, 0.0004f, -0.0070f, -0.0066f, -0.0140f, 0.0175f, -0.0124f, -0.0069f, -0.0072f, 0.0089f, -0.0029f, 0.0125f, -0.0067f, 0.0028f, -0.0084f, 0.0215f, -0.0119f, 0.0031f, 0.0063f, 0.0041f, -0.0019f, -0.0013f, 0.0004f, -0.0015f, 0.0096f, 0.0221f, -0.0056f, -0.0137f, -0.0009f, 0.0258f, -0.0080f, 0.0164f, 0.0168f, -0.0055f, 0.0057f, 0.0163f, -0.0038f, -0.0020f, -0.0058f, -0.0101f, -0.0065f, -0.0122f, 0.0003f, -0.0077f, 0.0023f, -0.0156f, 0.0033f, 0.0083f, -0.0199f, 0.0037f, 0.0123f, -0.0121f, 0.0167f, 0.0042f, -0.0071f, -0.0006f, 0.0056f, 0.0008f, 0.0054f, -0.0092f, 0.0017f, -0.0141f, -0.0011f, -0.0090f, -0.0074f, 0.0124f, 0.0109f, 0.0061f, -0.0109f, -0.0032f, 0.0121f, 0.0014f, 0.0232f, 0.0039f, 0.0019f, -0.0031f},
    {0.0013f, -0.0015f, 0.0071f, 0.0096f, -0.0079f, -0.0133f, -0.0184f, 0.0051f, -0.0110f, -0.0215f, 0.0039f, 0.0249f, -0.0001f, 0.0084f, 0.0008f, -0.0010f, 0.0092f, -0.0029f, 0.0027f, 0.0032f, -0.0067f, 0.0099f, -0.0017f, -0.0076f, 0.0054f, -0.0090f, 0.0003f, -0.0001f, 0.0109f, 0.0047f, -0.0003f, 0.0082f, 0.0139f, 0.0056f, 0.0001f, -0.0131f, -0.0107f, -0.0031f, -0.0061f, -0.0019f, 0.0006f, 0.0053f, -0.0007f, 0.0049f, 0.0006f, -0.0198f, -0.0094f, -0.0014f, -0.0121f, 0.0060f, 0.0153f, 0.0122f, -0.0021f, 0.0149f, 0.0015f, -0.0034f, -0.0061f, -0.0030f, -0.0039f, 0.0017f, 0.0016f, 0.0000f, 0.0044f, 0.0119f, 0.0095f, -0.0148f, -0.0255f, 0.0093f, -0.0137f, -0.0022f, -0.0117f, -0.0180f, 0.0054f, 0.0076f, -0.0058f, -0.0259f, -0.0055f, 0.0039f, -0.0148f, 0.0018f, -0.0002f, 0.0058f, 0.0012f, -0.0097f, 0.0120f, -0.0016f, -0.0003f, -0.0093f, -0.0044f, -0.0088f, -0.0017f, 0.0171f, -0.0137f, -0.0161f, 0.0147f, -0.0021f, -0.0067f, 0.0104f, -0.0061f, 0.0183f, 0.0068f, -0.0049f, 0.0216f, -0.0061f, 0.0074f, 0.0030f, 0.0130f, 0.0156f, 0.0003f, -0.0075f, 0.0046f, -0.0068f, 0.0201f, 0.0014f, -0.0037f, 0.0018f, -0.0135f, -0.0097f, 0.0120f, -0.0066f, -0.0105f, 0.0054f, 0.0119f, 0.0072f, 0.0100f, -0.0076f, -0.0142f, 0.0150f},
    {-0.0032f, -0.0025f, 0.0133f, 0.0056f, 0.0046f, 0.0217f, -0.0064f, 0.0093f, 0.0006f, 0.0027f, 0.0153f, 0.0051f, 0.0054f, 0.0107f, -0.0036f, -0.0084f, -0.0104f, -0.0197f, 0.0206f, -0.0110f, -0.0022f, -0.0028f, 0.0031f, 0.0082f, 0.0086f, -0.0058f, -0.0017f, 0.0028f, -0.0025f, 0.0161f, 0.0049f, 0.0073f, 0.0066f, 0.0117f, 0.0018f, -0.0130f, 0.0040f, -0.0065f, -0.0053f, 0.0059f, 0.0124f, 0.0002f, 0.0031f, 0.0170f, 0.0024f, 0.0260f, 0.0057f, -0.0176f, 0.0075f, 0.0038f, 0.0129f, 0.0067f, -0.0014f, -0.0122f, -0.0021f, -0.0085f, -0.0058f, 0.0059f, 0.0167f, 0.0039f, -0.0120f, 0.0044f, 0.0120f, -0.0061f, -0.0013f, 0.0001f, -0.0078f, 0.0065f, -0.0012f, 0.0042f, -0.0089f, -0.0044f, 0.0072f, -0.0037f, 0.0173f, -0.0040f, 0.0022f, 0.0093f, -0.0142f, -0.0176f, -0.0153f, 0.0126f, -0.0055f, 0.0256f, -0.0056f, 0.0018f, 0.0154f, 0.0201f, 0.0206f, 0.0121f, 0.0102f, 0.0059f, 0.0078f, -0.0055f, -0.0082f, -0.0000f, -0.0017f, -0.0045f, 0.0070f, 0.0096f, 0.0009f, 0.0148f, -0.0114f, -0.0019f, -0.0072f, -0.0187f, -0.0008f, -0.0012f, 0.0151f, 0.0063f, -0.0102f, 0.0185f, 0.0122f, 0.0058f, -0.0023f, -0.0096f, -0.0037f, 0.0109f, 0.0188f, 0.0154f, -0.0049f, -0.0112f, 0.0014f, -0.0177f, 0.0032f, -0.0015f, -0.0047f, -0.0159f},
    {0.0051f, -0.0053f, -0.0117f, -0.0287f, -0.0003f, 0.0177f, 0.0166f, -0.0046f, -0.0060f, 0.0047f, -0.0100f, 0.0030f, 0.0077f, 0.0123f, -0.0010f, -0.0020f, -0.0088f, -0.0083f, -0.0023f, 0.0037f, 0.0091f, -0.0080f, 0.0149f, -0.0027f, -0.0002f, -0.0075f, -0.0242f, 0.0088f, 0.0074f, -0.0028f, 0.0007f, 0.0052f, -0.0156f, -0.0053f, 0.0079f, -0.0125f, 0.0029f, -0.0136f, 0.0047f, -0.0004f, -0.0162f, 0.0116f, -0.0073f, -0.0081f, 0.0020f, 0.0115f, -0.0102f, 0.0006f, 0.0043f, 0.0069f, 0.0018f, -0.0037f, -0.0083f, 0.0009f, -0.0107f, -0.0292f, 0.0044f, 0.0090f, -0.0236f, -0.0101f, 0.0062f, 0.0206f, 0.0002f, -0.0073f, -0.0018f, 0.0137f, -0.0065f, -0.0080f, -0.0048f, -0.0095f, 0.0012f, 0.0162f, 0.0032f, -0.0025f, -0.0029f, -0.0156f, 0.0088f, -0.0008f, -0.0018f, 0.0319f, 0.0030f, -0.0075f, -0.0043f, 0.0115f, 0.0011f, -0.0144f, 0.0092f, -0.0067f, 0.0187f, 0.0108f, -0.0045f, 0.0128f, 0.0007f, 0.0085f, 0.0048f, -0.0085f, -0.0064f, 0.0103f, -0.0033f, -0.0040f, -0.0096f, 0.0042f, 0.0206f, -0.0107f, 0.0002f, 0.0141f, -0.0008f, 0.0045f, -0.0106f, 0.0043f, -0.0019f, 0.0099f, 0.0119f, 0.0259f, 0.0058f, 0.0033f, 0.0019f, -0.0035f, 0.0034f, -0.0030f, 0.0017f, 0.0132f, -0.0101f, 0.0114f, 0.0132f, -0.0012f, -0.0212f, -0.0061f},
    {0.0130f, -0.0002f, -0.0100f, -0.0050f, 0.0084f, 0.0055f, -0.0024f, -0.0037f, -0.0039f, -0.0092f, 0.0162f, -0.0032f, 0.0122f, 0.0152f, 0.0100f, -0.0043f, 0.0040f, -0.0002f, -0.0090f, 0.0032f, -0.0118f, 0.0119f, -0.0046f, 0.0020f, 0.0028f, -0.0026f, 0.0059f, -0.0048f, 0.0087f, -0.0135f, 0.0013f, 0.0194f, -0.0100f, -0.0068f, 0.0051f, 0.0018f, 0.0035f, 0.0049f, 0.0064f, 0.0111f, 0.0041f, -0.0024f, 0.0067f, 0.0190f, -0.0013f, -0.0097f, 0.0111f, -0.0012f, -0.0217f, 0.0085f, -0.0054f, -0.0009f, 0.0033f, 0.0019f, 0.0071f, -0.0044f, 0.0051f, -0.0026f, 0.0074f, 0.0062f, -0.0094f, 0.0109f, -0.0054f, 0.0081f, 0.0037f, 0.0184f, -0.0022f, -0.0035f, -0.0002f, -0.0030f, 0.0080f, -0.0162f, -0.0105f, -0.0107f, 0.0095f, 0.0171f, -0.0010f, -0.0017f, 0.0007f, 0.0116f, -0.0093f, 0.0024f, 0.0098f, 0.0050f, 0.0019f, 0.0100f, -0.0270f, 0.0068f, -0.0065f, -0.0183f, 0.0051f, 0.0137f, -0.0014f, 0.0095f, 0.0161f, 0.0131f, 0.0164f, 0.0074f, 0.0008f, -0.0160f, -0.0025f, -0.0084f, 0.0217f, -0.0018f, 0.0012f, 0.0055f, 0.0004f, 0.0170f, -0.0062f, 0.0019f, -0.0074f, -0.0132f, -0.0061f, -0.0004f, -0.0043f, -0.0069f, -0.0141f, -0.0008f, -0.0150f, 0.0076f, 0.0008f, -0.0146f, -0.0031f, -0.0075f, 0.0032f, 0.0134f, -0.0188f, 0.0012f},
    {-0.0016f, 0.0067f, 0.0021f, -0.0075f, -0.0032f, -0.0080f, 0.0108f, 0.0002f, 0.0190f, -0.0006f, -0.0071f, -0.0151f, -0.0180f, -0.0158f, 0.0027f, 0.0051f, -0.0158f, 0.0089f, -0.0048f, 0.0015f, 0.0161f, 0.0090f, -0.0027f, -0.0089f, -0.0215f, -0.0072f, -0.0021f, -0.0099f, -0.0013f, 0.0008f, -0.0022f, -0.0065f, 0.0017f, 0.0044f, -0.0109f, 0.0141f, -0.0010f, 0.0002f, 0.0071f, 0.0023f, 0.0095f, 0.0029f, -0.0061f, 0.0036f, -0.0114f, 0.0011f, -0.0003f, -0.0021f, -0.0013f, -0.0188f, -0.0055f, 0.0009f, 0.0016f, -0.0103f, 0.0127f, -0.0087f, 0.0097f, 0.0043f, -0.0065f, 0.0178f, -0.0119f, 0.0092f, 0.0100f, -0.0067f, 0.0139f, -0.0025f, 0.0029f, 0.0026f, -0.0013f, 0.0081f, 0.0079f, -0.0175f, 0.0130f, -0.0166f, 0.0103f, 0.0113f, -0.0109f, -0.0041f, -0.0111f, -0.0021f, -0.0031f, 0.0078f, 0.0131f, 0.0140f, -0.0056f, -0.0021f, -0.0168f, -0.0081f, 0.0096f, 0.0162f, -0.0123f, -0.0059f, -0.0003f, 0.0028f, -0.0081f, 0.0042f, -0.0047f, -0.0001f, 0.0055f, 0.0001f, -0.0044f, -0.0011f, -0.0009f, -0.0037f, -0.0026f, 0.0160f, 0.0056f, -0.0030f, 0.0070f, -0.0033f, 0.0117f, 0.0037f, -0.0011f, 0.0045f, -0.0157f, -0.0113f, -0.0119f, 0.0014f, 0.0173f, 0.0223f, 0.0064f, 0.0050f, -0.0180f, -0.0054f, -0.0079f, -0.0062f, -0.0017f, -0.0047f},
    {-0.0198f, 0.0075f, -0.0107f, 0.0024f, 0.0207f, -0.0092f, -0.0253f, -0.0029f, 0.0110f, 0.0196f, -0.0123f, 0.0050f, -0.0047f, -0.0011f, 0.0264f, -0.0150f, 0.0025f, 0.0047f, 0.0109f, 0.0010f, 0.0031f, -0.0039f, 0.0027f, -0.0034f, 0.0062f, -0.0037f, 0.0038f, -0.0003f, 0.0113f, -0.0005f, -0.0177f, 0.0126f, -0.0091f, -0.0065f, -0.0060f, 0.0137f, -0.0214f, 0.0314f, 0.0106f, 0.0022f, -0.0005f, 0.0029f, 0.0052f, 0.0065f, 0.0056f, 0.0009f, -0.0020f, -0.0015f, -0.0019f, 0.0113f, 0.0059f, -0.0294f, 0.0066f, 0.0019f, -0.0002f, -0.0039f, 0.0112f, 0.0095f, -0.0077f, 0.0041f, -0.0097f, -0.0138f, -0.0063f, 0.0086f, 0.0095f, 0.0051f, 0.0073f, 0.0052f, -0.0064f, 0.0043f, 0.0080f, 0.0075f, 0.0119f, 0.0071f, 0.0035f, 0.0107f, -0.0003f, -0.0088f, -0.0016f, -0.0074f, -0.0068f, -0.0014f, -0.0079f, -0.0031f, -0.0189f, 0.0021f, 0.0000f, -0.0082f, 0.0066f, 0.0094f, -0.0161f, -0.0076f, -0.0077f, -0.0094f, 0.0083f, -0.0019f, -0.0026f, -0.0200f, 0.0064f, -0.0124f, 0.0006f, 0.0028f, 0.0136f, -0.0131f, -0.0302f, 0.0018f, 0.0180f, 0.0124f, 0.0021f, -0.0049f, 0.0081f, -0.0097f, 0.0048f, 0.0051f, 0.0106f, 0.0276f, 0.0039f, -0.0051f, -0.0003f, -0.0177f, -0.0069f, -0.0041f, -0.0052f, 0.0015f, -0.0082f, 0.0112f, 0.0000f, -0.0001f},
    {-0.0033f, 0.0016f, 0.0083f, -0.0087f, -0.0066f, -0.0030f, -0.0135f, -0.0082f, -0.0048f, 0.0087f, 0.0026f, 0.0019f, 0.0085f, -0.0014f, 0.0039f, -0.0010f, 0.0027f, -0.0058f, -0.0244f, -0.0013f, 0.0142f, 0.0093f, 0.0097f, 0.0124f, 0.0009f, 0.0020f, -0.0062f, -0.0032f, 0.0062f, 0.0120f, -0.0014f, -0.0045f, 0.0000f, 0.0060f, -0.0144f, -0.0230f, -0.0055f, -0.0122f, -0.0051f, -0.0015f, -0.0045f, 0.0145f, 0.0033f, 0.0030f, 0.0062f, -0.0114f, 0.0104f, -0.0008f, 0.0067f, -0.0107f, -0.0155f, 0.0082f, 0.0038f, -0.0090f, -0.0087f, 0.0113f, -0.0119f, 0.0164f, -0.0090f, 0.0064f, -0.0033f, 0.0060f, -0.0054f, -0.0016f, 0.0004f, -0.0100f, 0.0074f, -0.0051f, -0.0023f, -0.0099f, -0.0256f, -0.0019f, 0.0241f, 0.0078f, -0.0002f, -0.0026f, 0.0002f, 0.0055f, -0.0118f, 0.0111f, 0.0072f, 0.0072f, 0.0044f, 0.0002f, 0.0067f, 0.0059f, -0.0035f, -0.0057f, 0.0010f, 0.0155f, -0.0124f, -0.0147f, 0.0016f, 0.0005f, 0.0017f, 0.0024f, -0.0022f, 0.0149f, -0.0160f, -0.0083f, -0.0010f, -0.0164f, -0.0018f, 0.0166f, 0.0002f, 0.0023f, -0.0126f, -0.0062f, -0.0038f, -0.0032f, 0.0128f, 0.0056f, -0.0111f, 0.0025f, 0.0050f, 0.0114f, 0.0158f, -0.0102f, -0.0081f, -0.0126f, -0.0023f, 0.0047f, 0.0099f, -0.0008f, -0.0032f, 0.0015f, -0.0084f, 0.0209f},
    {-0.0161f, 0.0018f, 0.0202f, 0.0001f, -0.0019f, -0.0036f, -0.0018f, 0.0137f, -0.0221f, 0.0153f, -0.0142f, -0.0027f, -0.0043f, 0.0059f, -0.0160f, 0.0046f, 0.0202f, -0.0136f, 0.0019f, -0.0066f, 0.0043f, 0.0002f, -0.0064f, 0.0049f, 0.0180f, -0.0019f, 0.0072f, -0.0129f, -0.0096f, 0.0047f, 0.0148f, 0.0036f, -0.0031f, -0.0000f, -0.0125f, 0.0060f, 0.0088f, -0.0045f, -0.0047f, 0.0027f, -0.0044f, -0.0007f, 0.0210f, -0.0025f, -0.0036f, -0.0065f, 0.0074f, -0.0018f, -0.0065f, 0.0132f, 0.0142f, -0.0060f, -0.0187f, 0.0101f, -0.0068f, 0.0079f, -0.0197f, 0.0089f, -0.0121f, 0.0073f, 0.0001f, -0.0095f, -0.0041f, 0.0069f, 0.0011f, 0.0058f, 0.0198f, -0.0156f, 0.0162f, 0.0010f, -0.0090f, -0.0133f, -0.0019f, 0.0092f, -0.0013f, 0.0151f, -0.0145f, -0.0001f, -0.0125f, 0.0036f, 0.0089f, -0.0042f, -0.0260f, 0.0020f, 0.0044f, 0.0040f, 0.0124f, -0.0107f, 0.0068f, 0.0119f, -0.0178f, 0.0032f, -0.0050f, -0.0008f, 0.0035f, -0.0049f, -0.0068f, 0.0003f, -0.0109f, -0.0109f, 0.0068f, -0.0115f, 0.0067f, 0.0046f, -0.0173f, -0.0068f, 0.0119f, -0.0098f, -0.0046f, 0.0046f, 0.0078f, -0.0025f, -0.0060f, 0.0142f, 0.0174f, 0.0098f, 0.0009f, -0.0081f, -0.0083f, 0.0052f, 0.0042f, 0.0140f, 0.0065f, -0.0150f, 0.0105f, -0.0100f, -0.0038f, 0.0025f},
    {0.0200f, 0.0311f, 0.0061f, -0.0018f, 0.0053f, 0.0089f, -0.0032f, 0.0180f, 0.0023f, 0.0050f, 0.0067f, 0.0042f, 0.0084f, -0.0062f, -0.0056f, -0.0110f, 0.0044f, 0.0078f, 0.0046f, 0.0167f, -0.0001f, 0.0067f, -0.0109f, -0.0039f, 0.0070f, 0.0085f, -0.0029f, -0.0007f, -0.0152f, -0.0036f, 0.0089f, 0.0058f, 0.0050f, 0.0005f, 0.0001f, -0.0066f, 0.0070f, 0.0042f, 0.0049f, -0.0053f, -0.0215f, 0.0110f, -0.0048f, -0.0086f, 0.0069f, -0.0039f, 0.0106f, 0.0062f, 0.0068f, -0.0137f, 0.0121f, 0.0026f, -0.0037f, 0.0014f, -0.0178f, 0.0041f, -0.0103f, -0.0135f, -0.0152f, 0.0111f, -0.0063f, 0.0153f, -0.0054f, -0.0171f, -0.0112f, 0.0124f, -0.0016f, -0.0055f, 0.0016f, 0.0050f, 0.0112f, 0.0145f, -0.0036f, -0.0133f, -0.0041f, 0.0026f, -0.0096f, -0.0096f, 0.0034f, -0.0005f, 0.0003f, -0.0076f, -0.0023f, -0.0092f, 0.0089f, 0.0104f, -0.0185f, -0.0093f, -0.0150f, -0.0065f, -0.0008f, -0.0145f, -0.0092f, -0.0100f, 0.0021f, 0.0007f, -0.0072f, 0.0018f, -0.0055f, -0.0027f, 0.0167f, 0.0134f, -0.0130f, 0.0083f, 0.0081f, -0.0115f, 0.0082f, 0.0154f, -0.0112f, -0.0092f, 0.0102f, 0.0027f, 0.0055f, 0.0034f, 0.0039f, -0.0133f, 0.0105f, 0.0117f, -0.0023f, -0.0004f, -0.0153f, 0.0051f, 0.0057f, -0.0006f, 0.0112f, -0.0033f, 0.0056f, -0.0102f},
    {-0.0002f, -0.0017f, 0.0023f, -0.0037f, -0.0013f, 0.0083f, -0.0044f, -0.0161f, 0.0175f, 0.0138f, -0.0129f, 0.0069f, -0.0050f, 0.0026f, 0.0029f, -0.0023f, -0.0078f, -0.0069f, -0.0092f, -0.0083f, -0.0007f, -0.0072f, 0.0068f, 0.0149f, -0.0058f, 0.0024f, 0.0050f, 0.0047f, 0.0008f, 0.0074f, 0.0048f, -0.0124f, 0.0087f, 0.0089f, -0.0076f, 0.0004f, 0.0068f, -0.0021f, 0.0107f, 0.0236f, -0.0079f, -0.0138f, 0.0030f, 0.0072f, -0.0023f, 0.0145f, -0.0134f, 0.0069f, -0.0061f, 0.0172f, 0.0199f, -0.0077f, -0.0055f, 0.0086f, -0.0039f, -0.0005f, 0.0003f, -0.0192f, -0.0001f, -0.0069f, -0.0049f, 0.0144f, -0.0126f, 0.0081f, -0.0028f, -0.0028f, 0.0079f, 0.0034f, 0.0057f, 0.0097f, -0.0033f, -0.0061f, -0.0109f, -0.0083f, 0.0295f, 0.0124f, -0.0135f, -0.0132f, 0.0048f, 0.0055f, 0.0055f, -0.0025f, -0.0013f, 0.0033f, 0.0009f, -0.0222f, -0.0023f, -0.0085f, 0.0018f, 0.0299f, 0.0037f, -0.0031f, 0.0092f, 0.0048f, 0.0042f, 0.0061f, 0.0206f, -0.0113f, 0.0047f, -0.0093f, 0.0056f, -0.0092f, -0.0042f, -0.0030f, 0.0098f, 0.0092f, -0.0125f, 0.0005f, -0.0071f, -0.0126f, -0.0022f, -0.0031f, 0.0243f, 0.0043f, -0.0138f, -0.0056f, 0.0102f, 0.0209f, -0.0159f, -0.0188f, 0.0187f, 0.0039f, -0.0087f, 0.0053f, -0.0264f, 0.0000f, 0.0033f, 0.0092f},
    {-0.0101f, 0.0009f, -0.0093f, 0.0026f, -0.0090f, -0.0041f, -0.0100f, 0.0065f, 0.0086f, -0.0023f, 0.0004f, -0.0145f, -0.0030f, -0.0005f, 0.0262f, -0.0111f, 0.0146f, 0.0100f, 0.0028f, 0.0176f, 0.0037f, 0.0039f, -0.0005f, 0.0122f, 0.0110f, -0.0063f, -0.0132f, -0.0020f, -0.0080f, -0.0006f, 0.0124f, -0.0046f, -0.0004f, 0.0006f, 0.0085f, -0.0225f, -0.0061f, 0.0021f, 0.0120f, -0.0049f, -0.0188f, 0.0062f, -0.0064f, -0.0119f, -0.0062f, -0.0018f, -0.0060f, -0.0221f, 0.0090f, 0.0127f, 0.0065f, -0.0114f, -0.0020f, -0.0001f, 0.0060f, 0.0067f, -0.0073f, 0.0008f, 0.0046f, 0.0146f, 0.0070f, 0.0079f, 0.0008f, 0.0141f, 0.0041f, -0.0086f, 0.0140f, 0.0070f, -0.0044f, -0.0048f, 0.0030f, 0.0046f, 0.0020f, 0.0031f, 0.0170f, 0.0107f, 0.0019f, 0.0094f, -0.0103f, 0.0040f, 0.0181f, -0.0022f, -0.0085f, -0.0065f, -0.0109f, -0.0078f, -0.0037f, -0.0141f, 0.0002f, 0.0090f, -0.0091f, 0.0152f, 0.0051f, 0.0103f, -0.0066f, 0.0085f, -0.0109f, 0.0089f, 0.0017f, 0.0055f, -0.0118f, -0.0090f, 0.0060f, -0.0095f, 0.0046f, -0.0137f, 0.0085f, -0.0123f, 0.0055f, 0.0063f, -0.0070f, 0.0058f, 0.0026f, -0.0054f, -0.0101f, -0.0196f, 0.0035f, -0.0156f, 0.0010f, -0.0026f, 0.0068f, -0.0030f, -0.0033f, 0.0073f, 0.0034f, 0.0032f, 0.0047f, -0.0154f},
    {0.0076f, 0.0061f, -0.0102f, -0.0024f, -0.0004f, -0.0013f, 0.0033f, 0.0143f, 0.0108f, -0.0131f, 0.0062f, 0.0133f, 0.0039f, 0.0109f, 0.0201f, 0.0102f, 0.0025f, 0.0105f, 0.0014f, 0.0002f, -0.0035f, 0.0156f, -0.0082f, 0.0153f, 0.0050f, -0.0140f, 0.0037f, -0.0210f, 0.0063f, 0.0089f, -0.0059f, 0.0012f, 0.0195f, -0.0051f, -0.0106f, 0.0148f, 0.0196f, 0.0000f, 0.0101f, 0.0134f, -0.0074f, -0.0049f, 0.0123f, 0.0169f, 0.0056f, -0.0088f, 0.0199f, -0.0053f, -0.0034f, 0.0034f, 0.0155f, 0.0085f, 0.0041f, 0.0046f, 0.0004f, 0.0056f, -0.0253f, -0.0030f, 0.0024f, -0.0115f, 0.0039f, -0.0020f, 0.0176f, 0.0157f, -0.0047f, -0.0015f, -0.0007f, -0.0045f, 0.0020f, -0.0076f, -0.0113f, 0.0062f, 0.0063f, -0.0080f, 0.0090f, -0.0063f, 0.0025f, 0.0082f, -0.0003f, 0.0045f, -0.0052f, -0.0020f, -0.0021f, -0.0075f, -0.0018f, -0.0155f, -0.0049f, -0.0028f, -0.0026f, -0.0024f, -0.0006f, 0.0048f, 0.0087f, -0.0065f, -0.0120f, -0.0104f, -0.0049f, -0.0035f, -0.0077f, -0.0130f, -0.0046f, 0.0018f, 0.0060f, -0.0056f, -0.0041f, -0.0093f, -0.0003f, -0.0085f, 0.0057f, -0.0179f, -0.0036f, 0.0030f, 0.0018f, 0.0269f, 0.0035f, -0.0100f, -0.0010f, -0.0178f, -0.0008f, -0.0083f, 0.0092f, -0.0055f, -0.0012f, -0.0064f, 0.0174f, -0.0032f, 0.0183f, 0.0081f},
    {0.0048f, 0.0037f, 0.0039f, -0.0193f, -0.0028f, 0.0085f, -0.0005f, -0.0141f, -0.0005f, 0.0170f, 0.0125f, -0.0006f, 0.0095f, -0.0037f, -0.0170f, -0.0092f, 0.0156f, -0.0027f, -0.0024f, -0.0030f, 0.0190f, 0.0163f, 0.0222f, -0.0016f, 0.0030f, -0.0152f, 0.0148f, -0.0117f, 0.0022f, -0.0110f, -0.0059f, -0.0084f, -0.0061f, -0.0054f, -0.0055f, 0.0083f, -0.0110f, 0.0022f, 0.0122f, -0.0051f, -0.0072f, -0.0023f, 0.0118f, 0.0019f, -0.0053f, 0.0048f, -0.0110f, 0.0068f, 0.0041f, -0.0031f, -0.0084f, -0.0089f, 0.0053f, 0.0123f, -0.0064f, 0.0046f, -0.0209f, -0.0058f, -0.0003f, -0.0091f, -0.0094f, -0.0067f, 0.0029f, -0.0019f, -0.0224f, -0.0212f, -0.0061f, 0.0046f, -0.0275f, -0.0050f, -0.0053f, 0.0139f, -0.0039f, 0.0038f, 0.0014f, -0.0213f, 0.0077f, 0.0022f, 0.0051f, 0.0393f, -0.0208f, 0.0172f, -0.0029f, 0.0029f, -0.0005f, -0.0042f, -0.0057f, 0.0033f, -0.0152f, 0.0075f, -0.0042f, -0.0113f, -0.0045f, 0.0126f, -0.0054f, 0.0036f, -0.0073f, 0.0076f, 0.0069f, 0.0185f, -0.0018f, 0.0067f, 0.0010f, 0.0130f, -0.0072f, 0.0075f, -0.0019f, -0.0006f, 0.0009f, 0.0025f, -0.0012f, 0.0021f, 0.0158f, 0.0099f, 0.0087f, -0.0046f, -0.0089f, 0.0096f, 0.0088f, 0.0147f, -0.0060f, -0.0023f, -0.0164f, -0.0039f, 0.0100f, -0.0047f, 0.0064f, -0.0019f},
    {0.0032f, -0.0115f, 0.0009f, -0.0299f, -0.0019f, -0.0163f, 0.0121f, 0.0078f, 0.0047f, 0.0152f, -0.0095f, 0.0175f, 0.0093f, -0.0024f, 0.0114f, -0.0111f, -0.0082f, -0.0061f, -0.0053f, -0.0106f, 0.0122f, -0.0026f, 0.0035f, -0.0057f, -0.0182f, 0.0027f, -0.0191f, -0.0007f, -0.0137f, 0.0199f, 0.0091f, 0.0011f, 0.0126f, -0.0085f, 0.0054f, 0.0020f, 0.0026f, 0.0127f, 0.0073f, 0.0029f, -0.0165f, -0.0096f, -0.0012f, 0.0009f, -0.0113f, 0.0241f, 0.0152f, 0.0060f, 0.0007f, -0.0021f, -0.0095f, 0.0008f, 0.0026f, -0.0124f, 0.0033f, -0.0016f, -0.0191f, -0.0086f, -0.0041f, 0.0189f, 0.0056f, -0.0134f, 0.0049f, -0.0155f, 0.0108f, -0.0047f, -0.0009f, 0.0133f, -0.0129f, -0.0140f, -0.0058f, 0.0104f, -0.0152f, -0.0283f, -0.0045f, 0.0055f, 0.0120f, -0.0046f, -0.0041f, 0.0115f, -0.0187f, -0.0039f, 0.0019f, 0.0045f, -0.0051f, 0.0003f, -0.0249f, -0.0066f, 0.0045f, -0.0098f, 0.0006f, 0.0045f, -0.0034f, 0.0017f, -0.0096f, -0.0021f, 0.0061f, 0.0016f, -0.0059f, 0.0022f, 0.0071f, -0.0205f, 0.0116f, -0.0034f, 0.0043f, 0.0120f, -0.0137f, -0.0071f, -0.0029f, -0.0078f, 0.0173f, -0.0086f, -0.0056f, 0.0020f, -0.0120f, -0.0040f, 0.0032f, -0.0033f, -0.0009f, -0.0053f, -0.0151f, 0.0032f, 0.0175f, 0.0002f, 0.0023f, 0.0069f, -0.0127f, 0.0170f},
    {0.0020f, 0.0163f, -0.0073f, 0.0182f, 0.0078f, 0.0055f, 0.0023f, -0.0025f, 0.0120f, 0.0014f, -0.0197f, -0.0112f, -0.0019f, 0.0031f, -0.0006f, 0.0122f, -0.0195f, 0.0014f, -0.0182f, 0.0076f, -0.0009f, 0.0042f, -0.0086f, 0.0128f, 0.0104f, 0.0058f, -0.0013f, 0.0058f, -0.0071f, 0.0086f, 0.0165f, 0.0107f, -0.0073f, 0.0036f, -0.0129f, 0.0057f, 0.0045f, -0.0187f, -0.0116f, -0.0028f, -0.0030f, -0.0121f, 0.0039f, 0.0025f, -0.0019f, -0.0076f, 0.0105f, 0.0166f, -0.0048f, -0.0061f, 0.0049f, -0.0036f, -0.0014f, 0.0074f, -0.0191f, 0.0132f, 0.0007f, -0.0041f, -0.0009f, -0.0004f, -0.0173f, 0.0149f, 0.0004f, 0.0044f, 0.0095f, -0.0102f, 0.0047f, -0.0027f, 0.0085f, -0.0213f, -0.0010f, -0.0060f, 0.0043f, 0.0047f, -0.0071f, -0.0071f, -0.0011f, -0.0090f, 0.0084f, -0.0037f, -0.0291f, -0.0037f, -0.0104f, -0.0163f, -0.0124f, 0.0011f, 0.0133f, 0.0031f, -0.0061f, 0.0046f, -0.0046f, -0.0069f, -0.0115f, -0.0175f, -0.0039f, 0.0016f, -0.0010f, -0.0042f, -0.0095f, 0.0061f, -0.0132f, 0.0078f, -0.0100f, -0.0075f, -0.0147f, -0.0050f, 0.0098f, 0.0052f, 0.0098f, 0.0052f, -0.0110f, -0.0033f, -0.0078f, 0.0133f, -0.0120f, 0.0089f, 0.0089f, 0.0183f, -0.0041f, 0.0071f, 0.0228f, -0.0062f, -0.0154f, -0.0188f, 0.0071f, -0.0188f, -0.0037f, 0.0044f},
    {0.0019f, 0.0043f, 0.0022f, 0.0128f, -0.0095f, -0.0068f, -0.0077f, 0.0083f, 0.0090f, 0.0045f, 0.0118f, -0.0118f, 0.0167f, 0.0152f, 0.0074f, 0.0178f, -0.0166f, -0.0052f, -0.0074f, 0.0072f, -0.0105f, 0.0076f, 0.0137f, 0.0070f, 0.0028f, -0.0099f, -0.0085f, 0.0125f, 0.0078f, -0.0004f, -0.0042f, -0.0203f, -0.0107f, 0.0191f, -0.0128f, 0.0019f, 0.0101f, -0.0125f, 0.0018f, 0.0094f, 0.0001f, 0.0287f, -0.0167f, 0.0106f, -0.0017f, 0.0077f, 0.0044f, -0.0073f, 0.0023f, -0.0186f, 0.0060f, 0.0030f, 0.0064f, 0.0106f, 0.0037f, 0.0015f, -0.0088f, -0.0071f, 0.0119f, 0.0144f, -0.0024f, 0.0005f, -0.0090f, 0.0117f, 0.0067f, 0.0194f, -0.0088f, -0.0038f, 0.0023f, 0.0065f, -0.0022f, -0.0087f, 0.0088f, 0.0072f, -0.0092f, 0.0136f, 0.0117f, 0.0013f, 0.0008f, 0.0055f, -0.0086f, 0.0003f, -0.0215f, 0.0088f, -0.0156f, 0.0150f, -0.0033f, -0.0021f, -0.0063f, -0.0029f, 0.0142f, -0.0249f, 0.0128f, 0.0034f, -0.0121f, -0.0108f, 0.0168f, -0.0095f, -0.0115f, 0.0114f, 0.0034f, -0.0094f, 0.0022f, -0.0103f, 0.0110f, 0.0106f, 0.0053f, 0.0036f, 0.0176f, -0.0000f, -0.0118f, 0.0045f, 0.0209f, -0.0101f, -0.0036f, 0.0042f, -0.0005f, -0.0098f, 0.0112f, 0.0232f, 0.0020f, -0.0090f, -0.0155f, 0.0026f, 0.0110f, 0.0048f, -0.0000f, -0.0059f},
    {-0.0109f, 0.0083f, 0.0091f, -0.0155f, 0.0159f, 0.0057f, 0.0140f, -0.0134f, -0.0137f, -0.0015f, 0.0050f, 0.0180f, 0.0071f, -0.0024f, -0.0103f, 0.0123f, -0.0096f, 0.0163f, -0.0028f, 0.0159f, 0.0068f, -0.0014f, -0.0052f, -0.0034f, 0.0043f, 0.0008f, -0.0059f, -0.0017f, 0.0008f, -0.0213f, 0.0046f, -0.0098f, -0.0115f, -0.0169f, -0.0179f, -0.0136f, -0.0071f, 0.0195f, -0.0053f, 0.0018f, 0.0040f, 0.0013f, -0.0008f, -0.0120f, 0.0145f, 0.0181f, -0.0168f, -0.0102f, -0.0028f, -0.0096f, 0.0051f, -0.0073f, 0.0217f, 0.0119f, 0.0021f, 0.0103f, 0.0111f, -0.0056f, -0.0082f, 0.0008f, 0.0086f, 0.0014f, -0.0158f, -0.0080f, -0.0007f, -0.0008f, 0.0197f, -0.0139f, 0.0051f, 0.0149f, 0.0227f, -0.0040f, 0.0049f, 0.0057f, 0.0020f, -0.0010f, 0.0044f, -0.0253f, 0.0068f, 0.0013f, -0.0022f, 0.0205f, -0.0067f, -0.0040f, 0.0199f, -0.0083f, -0.0055f, -0.0015f, 0.0084f, 0.0021f, -0.0129f, -0.0053f, -0.0061f, -0.0008f, 0.0043f, 0.0042f, -0.0178f, 0.0106f, 0.0025f, 0.0138f, 0.0044f, 0.0110f, 0.0047f, 0.0135f, 0.0052f, -0.0010f, 0.0227f, 0.0089f, 0.0057f, -0.0128f, -0.0129f, 0.0029f, 0.0015f, -0.0061f, 0.0014f, 0.0159f, 0.0070f, -0.0114f, -0.0011f, -0.0080f, -0.0039f, -0.0041f, -0.0048f, -0.0126f, -0.0013f, -0.0056f, -0.0293f, 0.0205f},
    {0.0109f, -0.0038f, 0.0002f, -0.0117f, 0.0170f, 0.0190f, 0.0016f, 0.0102f, 0.0018f, -0.0134f, -0.0041f, 0.0013f, -0.0045f, -0.0022f, -0.0009f, -0.0008f, 0.0005f, -0.0106f, -0.0072f, -0.0128f, 0.0098f, -0.0211f, 0.0115f, 0.0139f, -0.0030f, -0.0260f, -0.0036f, -0.0006f, -0.0101f, -0.0052f, 0.0153f, 0.0066f, -0.0092f, -0.0160f, -0.0033f, -0.0021f, 0.0050f, -0.0054f, 0.0051f, 0.0194f, 0.0082f, -0.0005f, -0.0018f, -0.0036f, 0.0118f, -0.0063f, 0.0005f, 0.0005f, -0.0050f, -0.0137f, 0.0032f, -0.0006f, 0.0050f, -0.0053f, 0.0122f, -0.0088f, 0.0171f, -0.0175f, 0.0043f, 0.0048f, -0.0080f, 0.0042f, 0.0128f, -0.0222f, 0.0050f, -0.0249f, -0.0097f, 0.0163f, -0.0058f, -0.0117f, -0.0020f, 0.0207f, -0.0183f, -0.0105f, 0.0150f, 0.0186f, -0.0010f, -0.0124f, 0.0210f, 0.0159f, 0.0068f, -0.0081f, -0.0005f, -0.0016f, 0.0033f, 0.0145f, 0.0088f, -0.0108f, 0.0138f, 0.0031f, 0.0069f, 0.0147f, -0.0111f, -0.0004f, -0.0053f, -0.0157f, 0.0035f, 0.0251f, -0.0184f, -0.0003f, 0.0064f, 0.0012f, -0.0011f, -0.0130f, 0.0023f, -0.0076f, -0.0219f, 0.0119f, 0.0096f, 0.0005f, 0.0023f, 0.0107f, 0.0022f, 0.0090f, -0.0030f, 0.0131f, 0.0032f, 0.0019f, -0.0127f, 0.0029f, -0.0083f, -0.0064f, -0.0082f, -0.0107f, 0.0212f, 0.0133f, 0.0192f, -0.0122f},
    {0.0007f, -0.0129f, -0.0070f, -0.0092f, 0.0124f, -0.0040f, 0.0107f, 0.0060f, 0.0230f, -0.0148f, 0.0126f, 0.0115f, -0.0097f, 0.0101f, 0.0034f, -0.0023f, -0.0082f, -0.0072f, 0.0205f, 0.0000f, 0.0078f, -0.0079f, -0.0078f, 0.0108f, -0.0135f, -0.0042f, 0.0003f, 0.0011f, -0.0018f, 0.0040f, 0.0069f, 0.0073f, -0.0099f, -0.0028f, 0.0119f, 0.0089f, -0.0137f, 0.0035f, -0.0198f, 0.0005f, 0.0190f, -0.0095f, -0.0083f, 0.0076f, -0.0154f, -0.0063f, 0.0060f, -0.0063f, -0.0024f, 0.0074f, 0.0042f, 0.0027f, -0.0034f, 0.0037f, -0.0012f, 0.0046f, -0.0050f, -0.0018f, -0.0099f, -0.0004f, -0.0081f, -0.0111f, 0.0026f, 0.0021f, 0.0078f, -0.0043f, 0.0041f, 0.0055f, 0.0044f, -0.0083f, 0.0015f, 0.0036f, 0.0001f, -0.0209f, 0.0016f, 0.0221f, -0.0036f, -0.0073f, 0.0037f, 0.0031f, 0.0119f, -0.0126f, 0.0073f, 0.0059f, -0.0014f, 0.0034f, 0.0103f, 0.0087f, -0.0114f, 0.0082f, -0.0006f, 0.0007f, 0.0007f, -0.0015f, 0.0119f, -0.0008f, -0.0112f, -0.0039f, 0.0018f, 0.0123f, 0.0060f, -0.0085f, 0.0249f, 0.0026f, 0.0128f, -0.0015f, 0.0053f, 0.0084f, 0.0122f, 0.0106f, 0.0087f, -0.0032f, -0.0057f, 0.0033f, 0.0093f, -0.0022f, 0.0107f, 0.0145f, -0.0092f, -0.0084f, -0.0014f, 0.0031f, -0.0052f, 0.0135f, 0.0042f, 0.0004f, -0.0144f, -0.0132f},
    {0.0028f, -0.0213f, 0.0101f, -0.0016f, 0.0324f, 0.0231f, -0.0018f, -0.0011f, 0.0100f, 0.0170f, -0.0164f, -0.0179f, -0.0062f, 0.0058f, 0.0050f, 0.0107f, -0.0120f, -0.0232f, 0.0086f, -0.0083f, -0.0202f, 0.0015f, 0.0079f, -0.0012f, -0.0046f, -0.0016f, -0.0037f, -0.0135f, -0.0071f, 0.0052f, 0.0032f, 0.0017f, -0.0100f, -0.0018f, -0.0218f, 0.0018f, 0.0143f, -0.0147f, -0.0059f, 0.0033f, 0.0125f, -0.0045f, -0.0069f, -0.0197f, 0.0010f, 0.0204f, 0.0028f, -0.0002f, 0.0032f, -0.0001f, -0.0081f, 0.0082f, 0.0023f, 0.0002f, -0.0098f, 0.0130f, 0.0066f, -0.0055f, 0.0100f, -0.0050f, -0.0078f, -0.0076f, -0.0177f, 0.0047f, -0.0183f, -0.0123f, -0.0208f, -0.0009f, -0.0015f, -0.0033f, -0.0104f, -0.0117f, 0.0046f, -0.0055f, 0.0032f, -0.0089f, 0.0018f, 0.0130f, 0.0059f, -0.0041f, 0.0026f, -0.0024f, 0.0001f, -0.0033f, -0.0016f, 0.0021f, -0.0099f, -0.0102f, -0.0139f, -0.0160f, -0.0122f, 0.0016f, -0.0089f, 0.0051f, 0.0003f, -0.0197f, 0.0065f, 0.0081f, -0.0099f, 0.0042f, -0.0086f, 0.0010f, -0.0126f, -0.0179f, -0.0038f, -0.0012f, -0.0040f, -0.0118f, -0.0040f, 0.0027f, -0.0004f, 0.0018f, -0.0067f, 0.0117f, -0.0118f, 0.0049f, 0.0118f, 0.0048f, -0.0020f, -0.0053f, 0.0104f, -0.0142f, -0.0097f, -0.0040f, 0.0124f, 0.0038f, -0.0097f, -0.0031f},
    {-0.0061f, -0.0071f, 0.0098f, -0.0137f, 0.0161f, 0.0083f, 0.0109f, -0.0046f, -0.0015f, -0.0143f, -0.0052f, 0.0049f, 0.0130f, -0.0111f, -0.0037f, -0.0015f, -0.0140f, 0.0059f, -0.0072f, -0.0020f, -0.0045f, -0.0079f, -0.0001f, -0.0022f, -0.0037f, -0.0073f, 0.0032f, 0.0165f, 0.0014f, 0.0100f, -0.0139f, 0.0016f, -0.0110f, -0.0148f, -0.0074f, 0.0119f, 0.0095f, 0.0024f, -0.0153f, -0.0020f, 0.0030f, 0.0018f, -0.0184f, -0.0089f, -0.0006f, 0.0054f, -0.0220f, -0.0016f, 0.0014f, 0.0085f, 0.0069f, 0.0058f, -0.0080f, -0.0191f, -0.0039f, 0.0100f, 0.0139f, 0.0071f, 0.0043f, 0.0038f, -0.0056f, -0.0013f, 0.0167f, -0.0094f, 0.0161f, -0.0032f, 0.0133f, -0.0141f, 0.0059f, -0.0074f, -0.0142f, 0.0022f, 0.0101f, -0.0084f, -0.0150f, -0.0009f, -0.0009f, 0.0055f, 0.0095f, -0.0006f, 0.0186f, 0.0022f, -0.0035f, -0.0161f, -0.0026f, -0.0034f, 0.0096f, 0.0046f, -0.0118f, 0.0017f, 0.0067f, 0.0153f, 0.0089f, 0.0076f, 0.0006f, 0.0039f, 0.0125f, -0.0133f, -0.0035f, -0.0077f, 0.0038f, 0.0123f, -0.0060f, -0.0239f, -0.0041f, 0.0091f, 0.0054f, 0.0043f, -0.0028f, -0.0128f, 0.0052f, -0.0083f, 0.0218f, 0.0057f, -0.0058f, -0.0061f, -0.0009f, -0.0024f, 0.0112f, 0.0019f, -0.0073f, 0.0189f, 0.0005f, 0.0077f, -0.0061f, 0.0036f, 0.0031f, -0.0189f},
    {0.0202f, 0.0129f, -0.0040f, -0.0110f, 0.0035f, 0.0009f, 0.0036f, 0.0019f, 0.0051f, 0.0145f, 0.0057f, -0.0105f, 0.0136f, 0.0164f, 0.0315f, -0.0112f, 0.0024f, -0.0208f, 0.0055f, -0.0055f, 0.0192f, -0.0077f, -0.0169f, -0.0047f, -0.0198f, 0.0075f, -0.0207f, 0.0003f, -0.0208f, -0.0032f, 0.0164f, 0.0036f, -0.0086f, -0.0003f, 0.0002f, 0.0047f, -0.0137f, 0.0059f, -0.0270f, -0.0063f, -0.0049f, 0.0063f, 0.0002f, -0.0141f, -0.0098f, 0.0020f, -0.0008f, -0.0058f, -0.0048f, 0.0070f, -0.0052f, -0.0009f, 0.0217f, -0.0142f, -0.0185f, 0.0078f, -0.0068f, -0.0032f, -0.0078f, -0.0026f, 0.0160f, 0.0080f, 0.0086f, -0.0142f, -0.0115f, -0.0284f, -0.0081f, 0.0096f, 0.0052f, -0.0022f, -0.0002f, -0.0069f, 0.0020f, 0.0077f, -0.0162f, 0.0030f, 0.0093f, -0.0042f, 0.0070f, 0.0281f, -0.0010f, 0.0039f, -0.0074f, 0.0018f, 0.0046f, 0.0019f, -0.0102f, 0.0021f, 0.0146f, 0.0045f, 0.0096f, -0.0024f, 0.0075f, 0.0028f, -0.0095f, 0.0032f, -0.0099f, -0.0063f, 0.0019f, 0.0030f, -0.0119f, 0.0105f, 0.0057f, -0.0070f, -0.0154f, -0.0014f, -0.0045f, 0.0011f, -0.0036f, -0.0201f, -0.0039f, -0.0031f, 0.0063f, -0.0070f, 0.0168f, -0.0191f, 0.0131f, -0.0022f, 0.0086f, 0.0008f, 0.0114f, -0.0039f, -0.0110f, 0.0142f, -0.0011f, 0.0022f, 0.0123f, -0.0103f},
    {0.0060f, -0.0059f, -0.0013f, 0.0007f, -0.0150f, -0.0078f, 0.0135f, 0.0089f, -0.0006f, 0.0024f, -0.0029f, 0.0136f, -0.0020f, 0.0023f, 0.0115f, -0.0078f, 0.0156f, -0.0153f, 0.0163f, -0.0037f, -0.0024f, -0.0189f, -0.0045f, -0.0104f, -0.0061f, -0.0014f, 0.0096f, 0.0021f, 0.0031f, -0.0110f, -0.0088f, 0.0180f, -0.0074f, 0.0166f, -0.0024f, 0.0000f, 0.0107f, 0.0127f, -0.0011f, -0.0039f, -0.0006f, 0.0034f, 0.0089f, 0.0000f, 0.0062f, 0.0164f, 0.0038f, 0.0031f, -0.0152f, -0.0263f, 0.0039f, -0.0009f, -0.0051f, 0.0024f, -0.0006f, 0.0113f, 0.0009f, -0.0075f, 0.0099f, -0.0022f, 0.0053f, -0.0048f, -0.0065f, 0.0008f, 0.0001f, 0.0048f, -0.0027f, -0.0184f, -0.0043f, 0.0079f, -0.0030f, -0.0025f, 0.0099f, -0.0071f, -0.0154f, -0.0016f, -0.0048f, -0.0097f, -0.0018f, 0.0049f, -0.0001f, 0.0031f, 0.0181f, -0.0034f, 0.0028f, -0.0051f, -0.0085f, -0.0058f, -0.0048f, 0.0036f, 0.0235f, -0.0072f, -0.0042f, -0.0006f, 0.0040f, 0.0026f, 0.0128f, -0.0243f, -0.0239f, -0.0050f, 0.0110f, -0.0157f, -0.0301f, 0.0057f, 0.0024f, -0.0109f, -0.0099f, -0.0097f, 0.0011f, -0.0063f, 0.0049f, -0.0285f, -0.0086f, -0.0113f, -0.0026f, -0.0054f, 0.0080f, -0.0186f, 0.0005f, 0.0056f, 0.0186f, -0.0048f, 0.0032f, -0.0180f, -0.0239f, 0.0084f, -0.0001f, 0.0118f},
    {-0.0137f, 0.0052f, 0.0187f, 0.0042f, 0.0028f, 0.0001f, -0.0157f, 0.0136f, -0.0061f, 0.0050f, -0.0156f, -0.0118f, 0.0144f, -0.0035f, 0.0145f, -0.0008f, -0.0184f, 0.0089f, -0.0059f, 0.0070f, 0.0003f, -0.0154f, 0.0016f, 0.0220f, 0.0049f, -0.0006f, 0.0108f, 0.0021f, 0.0021f, -0.0109f, 0.0023f, 0.0104f, -0.0084f, 0.0142f, -0.0009f, -0.0089f, 0.0100f, -0.0029f, 0.0076f, -0.0029f, -0.0006f, 0.0049f, 0.0029f, -0.0200f, -0.0112f, 0.0093f, -0.0013f, -0.0052f, -0.0136f, -0.0108f, -0.0202f, -0.0010f, -0.0060f, -0.0097f, -0.0007f, 0.0036f, 0.0209f, -0.0151f, 0.0116f, 0.0097f, -0.0078f, 0.0020f, -0.0046f, 0.0019f, 0.0151f, 0.0061f, 0.0051f, -0.0043f, -0.0148f, -0.0021f, 0.0121f, -0.0153f, -0.0106f, 0.0013f, -0.0098f, -0.0079f, -0.0042f, -0.0137f, -0.0097f, 0.0070f, -0.0131f, -0.0160f, -0.0063f, 0.0073f, -0.0020f, -0.0046f, 0.0004f, -0.0175f, 0.0049f, 0.0038f, -0.0041f, 0.0101f, -0.0113f, 0.0113f, 0.0015f, -0.0034f, -0.0002f, -0.0011f, 0.0122f, -0.0108f, -0.0076f, 0.0104f, -0.0060f, 0.0090f, 0.0170f, -0.0040f, 0.0068f, -0.0115f, 0.0075f, 0.0020f, 0.0047f, -0.0065f, -0.0166f, 0.0050f, -0.0206f, -0.0032f, 0.0094f, 0.0019f, 0.0195f, 0.0103f, -0.0065f, 0.0003f, -0.0005f, -0.0158f, -0.0094f, -0.0056f, -0.0204f, 0.0005f},
    {-0.0025f, -0.0167f, 0.0040f, 0.0072f, 0.0023f, -0.0032f, 0.0059f, 0.0068f, 0.0031f, -0.0082f, 0.0028f, 0.0119f, -0.0060f, 0.0210f, -0.0053f, 0.0003f, -0.0067f, 0.0022f, -0.0174f, -0.0055f, -0.0109f, 0.0014f, 0.0100f, 0.0065f, -0.0237f, 0.0204f, 0.0029f, -0.0078f, 0.0016f, 0.0018f, -0.0067f, 0.0020f, -0.0061f, -0.0040f, -0.0069f, -0.0143f, 0.0015f, 0.0059f, 0.0052f, 0.0082f, 0.0032f, -0.0053f, 0.0084f, -0.0136f, -0.0090f, -0.0096f, 0.0108f, 0.0094f, 0.0049f, 0.0107f, -0.0088f, 0.0035f, -0.0013f, 0.0085f, -0.0012f, -0.0039f, 0.0054f, 0.0088f, -0.0067f, -0.0006f, -0.0106f, -0.0250f, 0.0020f, 0.0061f, 0.0026f, -0.0195f, -0.0035f, -0.0222f, 0.0137f, -0.0109f, 0.0126f, 0.0095f, -0.0090f, -0.0113f, 0.0035f, -0.0084f, 0.0010f, -0.0048f, -0.0178f, -0.0223f, 0.0023f, -0.0056f, -0.0055f, 0.0070f, 0.0117f, -0.0027f, -0.0034f, 0.0050f, -0.0136f, 0.0022f, 0.0055f, 0.0068f, -0.0194f, -0.0076f, -0.0088f, 0.0010f, 0.0048f, 0.0150f, -0.0049f, -0.0050f, 0.0115f, 0.0030f, 0.0127f, 0.0029f, -0.0116f, -0.0133f, -0.0155f, 0.0066f, 0.0119f, 0.0185f, 0.0084f, 0.0116f, -0.0058f, -0.0116f, 0.0085f, 0.0042f, 0.0011f, 0.0039f, 0.0032f, 0.0128f, 0.0130f, 0.0054f, 0.0085f, 0.0051f, -0.0046f, 0.0076f, -0.0140f, 0.0105f},
    {-0.0119f, 0.0029f, -0.0085f, 0.0055f, -0.0003f, -0.0160f, 0.0042f, -0.0058f, 0.0088f, 0.0000f, 0.0039f, -0.0096f, -0.0059f, -0.0046f, 0.0086f, 0.0168f, -0.0081f, 0.0108f, -0.0217f, -0.0119f, -0.0096f, -0.0135f, -0.0158f, 0.0041f, -0.0021f, 0.0038f, 0.0069f, 0.0027f, 0.0066f, -0.0007f, -0.0119f, 0.0106f, -0.0059f, -0.0094f, -0.0018f, -0.0091f, -0.0042f, 0.0035f, 0.0035f, -0.0090f, -0.0049f, 0.0107f, 0.0050f, 0.0208f, 0.0118f, 0.0115f, -0.0139f, 0.0076f, -0.0005f, -0.0055f, 0.0017f, 0.0095f, 0.0050f, -0.0088f, 0.0074f, -0.0064f, 0.0022f, -0.0030f, -0.0022f, 0.0077f, -0.0104f, 0.0195f, -0.0182f, -0.0060f, 0.0037f, 0.0058f, -0.0010f, -0.0006f, 0.0041f, -0.0023f, 0.0139f, 0.0084f, 0.0087f, -0.0097f, -0.0008f, -0.0030f, -0.0101f, 0.0036f, -0.0054f, 0.0065f, -0.0107f, 0.0172f, -0.0089f, 0.0022f, 0.0079f, -0.0057f, 0.0085f, -0.0123f, 0.0145f, 0.0001f, -0.0060f, -0.0030f, 0.0081f, -0.0058f, -0.0075f, -0.0022f, -0.0118f, 0.0182f, -0.0057f, 0.0083f, 0.0021f, -0.0099f, -0.0000f, 0.0078f, -0.0019f, 0.0119f, 0.0102f, 0.0092f, -0.0046f, -0.0108f, -0.0061f, 0.0020f, 0.0055f, -0.0217f, -0.0001f, 0.0016f, -0.0028f, 0.0129f, 0.0042f, 0.0131f, -0.0021f, 0.0094f, 0.0164f, 0.0131f, -0.0109f, -0.0025f, -0.0035f, 0.0049f},
    {0.0069f, -0.0084f, 0.0007f, -0.0202f, 0.0145f, -0.0051f, 0.0005f, -0.0031f, 0.0115f, -0.0284f, -0.0002f, -0.0011f, -0.0045f, 0.0172f, -0.0089f, 0.0077f, 0.0036f, 0.0126f, -0.0067f, -0.0073f, 0.0110f, 0.0042f, -0.0154f, -0.0054f, 0.0039f, 0.0084f, -0.0068f, -0.0291f, 0.0052f, -0.0122f, -0.0202f, -0.0283f, 0.0081f, 0.0013f, -0.0022f, 0.0139f, 0.0064f, 0.0162f, -0.0139f, -0.0003f, -0.0162f, -0.0023f, -0.0025f, 0.0063f, 0.0005f, 0.0063f, 0.0070f, 0.0216f, -0.0031f, -0.0094f, 0.0025f, -0.0080f, 0.0148f, -0.0028f, -0.0057f, -0.0047f, 0.0072f, -0.0016f, -0.0064f, 0.0167f, -0.0086f, 0.0004f, 0.0065f, -0.0164f, 0.0048f, -0.0106f, 0.0082f, -0.0097f, 0.0069f, 0.0111f, 0.0086f, 0.0025f, -0.0023f, -0.0058f, 0.0147f, -0.0070f, -0.0104f, 0.0067f, -0.0080f, -0.0095f, -0.0144f, -0.0048f, -0.0008f, 0.0024f, 0.0095f, 0.0053f, -0.0019f, -0.0020f, 0.0051f, 0.0127f, 0.0012f, -0.0047f, -0.0099f, -0.0145f, 0.0067f, 0.0058f, 0.0058f, -0.0013f, 0.0141f, -0.0048f, 0.0095f, -0.0004f, -0.0060f, 0.0059f, 0.0041f, 0.0035f, 0.0008f, -0.0004f, 0.0239f, 0.0119f, 0.0072f, 0.0011f, 0.0101f, 0.0052f, 0.0003f, -0.0030f, -0.0008f, -0.0317f, 0.0021f, -0.0049f, 0.0160f, 0.0002f, -0.0119f, -0.0005f, -0.0105f, 0.0048f, 0.0029f, 0.0096f},
    {-0.0079f, 0.0004f, -0.0137f, 0.0070f, 0.0052f, 0.0049f, -0.0000f, 0.0042f, 0.0160f, -0.0029f, 0.0014f, -0.0109f, -0.0087f, 0.0010f, 0.0111f, -0.0025f, -0.0024f, -0.0041f, -0.0053f, 0.0029f, -0.0149f, 0.0128f, -0.0066f, 0.0072f, -0.0127f, 0.0067f, 0.0067f, 0.0038f, -0.0100f, 0.0025f, -0.0118f, -0.0025f, 0.0103f, 0.0080f, 0.0002f, -0.0097f, 0.0064f, 0.0003f, -0.0231f, 0.0078f, -0.0003f, 0.0120f, -0.0109f, -0.0318f, 0.0028f, 0.0030f, -0.0169f, -0.0098f, 0.0276f, -0.0030f, 0.0073f, -0.0065f, -0.0209f, -0.0017f, -0.0027f, -0.0040f, -0.0012f, 0.0027f, -0.0015f, -0.0126f, 0.0049f, -0.0195f, -0.0205f, 0.0073f, 0.0051f, -0.0006f, -0.0140f, -0.0071f, -0.0026f, -0.0160f, -0.0074f, 0.0065f, 0.0143f, -0.0042f, 0.0075f, -0.0191f, 0.0066f, -0.0080f, 0.0031f, -0.0025f, 0.0132f, -0.0087f, 0.0063f, -0.0028f, -0.0016f, -0.0018f, -0.0085f, -0.0002f, -0.0007f, 0.0024f, 0.0008f, 0.0080f, 0.0093f, -0.0105f, 0.0087f, -0.0119f, 0.0059f, 0.0062f, -0.0191f, 0.0010f, -0.0047f, -0.0076f, 0.0136f, -0.0065f, -0.0080f, 0.0007f, 0.0069f, -0.0014f, 0.0117f, 0.0053f, -0.0218f, -0.0053f, -0.0056f, 0.0048f, -0.0262f, 0.0255f, 0.0054f, 0.0015f, 0.0118f, 0.0234f, 0.0088f, 0.0095f, 0.0013f, -0.0014f, -0.0048f, -0.0082f, -0.0069f, -0.0135f},
    {-0.0008f, -0.0168f, 0.0019f, -0.0004f, 0.0016f, -0.0053f, 0.0307f, 0.0136f, -0.0125f, 0.0023f, -0.0061f, -0.0102f, -0.0134f, 0.0043f, -0.0068f, 0.0097f, 0.0099f, 0.0138f, -0.0085f, 0.0047f, 0.0064f, -0.0048f, -0.0076f, 0.0161f, 0.0023f, 0.0064f, -0.0083f, -0.0122f, -0.0057f, -0.0012f, -0.0106f, -0.0001f, -0.0169f, -0.0112f, 0.0067f, 0.0060f, -0.0040f, -0.0099f, -0.0102f, -0.0037f, 0.0064f, 0.0093f, -0.0049f, -0.0115f, 0.0027f, -0.0081f, -0.0052f, 0.0133f, 0.0084f, 0.0016f, -0.0127f, 0.0021f, 0.0106f, -0.0038f, 0.0135f, 0.0129f, 0.0166f, 0.0031f, 0.0059f, 0.0141f, 0.0045f, -0.0050f, -0.0045f, 0.0023f, -0.0129f, -0.0015f, 0.0109f, -0.0220f, 0.0154f, 0.0112f, -0.0046f, 0.0054f, 0.0000f, 0.0123f, 0.0098f, -0.0139f, 0.0059f, -0.0021f, 0.0008f, -0.0074f, 0.0175f, 0.0104f, -0.0073f, -0.0134f, -0.0039f, 0.0043f, 0.0024f, 0.0125f, 0.0078f, 0.0096f, 0.0032f, -0.0139f, -0.0019f, 0.0106f, -0.0005f, 0.0050f, -0.0032f, -0.0102f, -0.0012f, 0.0032f, -0.0066f, -0.0024f, -0.0092f, 0.0112f, -0.0029f, 0.0145f, 0.0153f, -0.0008f, -0.0101f, -0.0208f, -0.0147f, -0.0137f, 0.0138f, 0.0011f, 0.0039f, -0.0222f, -0.0119f, 0.0089f, 0.0029f, -0.0015f, 0.0057f, 0.0164f, -0.0022f, 0.0007f, 0.0019f, 0.0240f, -0.0210f, 0.0068f},
    {-0.0012f, 0.0058f, -0.0066f, -0.0005f, 0.0073f, 0.0311f, 0.0081f, -0.0085f, -0.0043f, -0.0046f, -0.0180f, -0.0034f, 0.0073f, -0.0128f, 0.0105f, 0.0049f, -0.0074f, -0.0014f, 0.0160f, 0.0073f, 0.0002f, -0.0024f, 0.0010f, -0.0051f, -0.0210f, 0.0204f, 0.0014f, 0.0040f, -0.0006f, -0.0074f, -0.0018f, -0.0160f, 0.0228f, -0.0123f, -0.0103f, -0.0044f, 0.0128f, 0.0005f, -0.0122f, 0.0126f, 0.0073f, 0.0054f, 0.0072f, 0.0239f, 0.0219f, -0.0067f, 0.0162f, 0.0039f, 0.0051f, -0.0169f, -0.0017f, -0.0081f, 0.0082f, 0.0107f, -0.0208f, -0.0002f, 0.0112f, -0.0018f, 0.0073f, 0.0035f, 0.0034f, -0.0027f, -0.0122f, -0.0113f, 0.0071f, 0.0001f, -0.0015f, -0.0044f, -0.0030f, 0.0105f, -0.0034f, -0.0134f, 0.0074f, -0.0021f, 0.0002f, 0.0162f, -0.0002f, 0.0029f, -0.0118f, -0.0023f, 0.0061f, -0.0155f, 0.0022f, 0.0009f, 0.0004f, 0.0104f, 0.0033f, 0.0148f, -0.0100f, 0.0013f, 0.0008f, -0.0107f, 0.0097f, 0.0232f, -0.0002f, 0.0051f, 0.0008f, -0.0070f, -0.0181f, -0.0069f, -0.0139f, 0.0169f, -0.0009f, -0.0034f, 0.0089f, -0.0113f, -0.0077f, 0.0007f, 0.0103f, 0.0051f, 0.0025f, 0.0009f, 0.0040f, 0.0020f, -0.0103f, 0.0004f, -0.0106f, 0.0009f, -0.0047f, 0.0254f, -0.0003f, -0.0140f, -0.0013f, 0.0052f, 0.0167f, -0.0058f, -0.0159f, 0.0082f},
    {-0.0138f, -0.0042f, -0.0026f, -0.0007f, 0.0071f, -0.0069f, -0.0028f, -0.0001f, 0.0015f, 0.0010f, 0.0043f, 0.0083f, 0.0039f, 0.0045f, -0.0158f, 0.0006f, 0.0048f, 0.0073f, -0.0069f, -0.0066f, -0.0056f, 0.0053f, 0.0105f, -0.0041f, 0.0091f, 0.0012f, -0.0014f, -0.0021f, 0.0074f, 0.0032f, 0.0228f, -0.0085f, 0.0052f, -0.0053f, -0.0087f, -0.0001f, 0.0013f, 0.0295f, -0.0017f, -0.0113f, 0.0027f, -0.0207f, -0.0009f, 0.0002f, 0.0080f, 0.0099f, -0.0051f, -0.0015f, -0.0075f, -0.0113f, 0.0031f, -0.0127f, -0.0042f, -0.0100f, 0.0055f, 0.0180f, -0.0130f, -0.0184f, -0.0012f, 0.0002f, 0.0022f, -0.0045f, -0.0020f, 0.0035f, 0.0104f, -0.0197f, -0.0038f, 0.0020f, -0.0091f, 0.0173f, -0.0064f, -0.0005f, 0.0055f, -0.0059f, -0.0186f, -0.0041f, 0.0103f, -0.0034f, -0.0085f, 0.0091f, -0.0033f, -0.0051f, 0.0017f, 0.0076f, 0.0238f, 0.0083f, 0.0116f, -0.0051f, -0.0103f, 0.0005f, 0.0010f, -0.0108f, -0.0016f, 0.0040f, 0.0036f, 0.0050f, 0.0029f, -0.0049f, -0.0051f, -0.0118f, 0.0178f, 0.0000f, -0.0020f, -0.0092f, 0.0294f, -0.0109f, -0.0043f, 0.0042f, 0.0061f, 0.0096f, 0.0181f, 0.0052f, -0.0106f, -0.0026f, 0.0031f, 0.0207f, -0.0138f, 0.0121f, 0.0019f, 0.0084f, -0.0009f, -0.0084f, 0.0075f, 0.0065f, 0.0097f, -0.0000f, -0.0061f, -0.0156f},
    {0.0082f, 0.0044f, -0.0097f, -0.0054f, -0.0045f, -0.0149f, -0.0082f, -0.0113f, -0.0041f, -0.0074f, -0.0163f, 0.0201f, 0.0125f, -0.0079f, 0.0028f, 0.0042f, 0.0119f, -0.0082f, 0.0110f, -0.0055f, -0.0132f, 0.0072f, 0.0131f, 0.0259f, -0.0120f, 0.0070f, -0.0042f, 0.0078f, -0.0148f, -0.0126f, -0.0077f, 0.0008f, -0.0064f, 0.0066f, 0.0103f, 0.0060f, 0.0161f, 0.0045f, -0.0120f, 0.0136f, -0.0061f, 0.0091f, 0.0158f, 0.0046f, -0.0149f, -0.0090f, 0.0132f, -0.0017f, 0.0009f, 0.0076f, 0.0070f, 0.0028f, -0.0021f, -0.0031f, 0.0086f, 0.0055f, -0.0026f, 0.0109f, -0.0013f, -0.0085f, -0.0076f, -0.0098f, -0.0027f, 0.0122f, -0.0081f, 0.0018f, -0.0067f, -0.0027f, -0.0151f, -0.0022f, -0.0020f, 0.0054f, 0.0022f, -0.0120f, 0.0108f, 0.0023f, 0.0019f, -0.0001f, -0.0052f, 0.0020f, 0.0048f, -0.0175f, -0.0052f, -0.0026f, 0.0025f, 0.0119f, -0.0078f, -0.0050f, -0.0052f, -0.0081f, -0.0036f, 0.0077f, -0.0104f, 0.0043f, -0.0170f, -0.0056f, -0.0033f, 0.0169f, -0.0027f, -0.0219f, -0.0200f, 0.0002f, 0.0064f, 0.0038f, 0.0017f, 0.0115f, -0.0054f, 0.0090f, -0.0163f, -0.0090f, -0.0181f, -0.0026f, -0.0005f, 0.0011f, 0.0006f, -0.0093f, -0.0017f, -0.0149f, 0.0137f, -0.0030f, -0.0048f, 0.0159f, -0.0124f, -0.0113f, -0.0110f, -0.0006f, 0.0042f, 0.0074f},
    {0.0257f, -0.0224f, 0.0061f, -0.0056f, -0.0057f, -0.0062f, -0.0091f, 0.0169f, 0.0084f, 0.0002f, 0.0134f, -0.0152f, -0.0133f, -0.0218f, -0.0070f, 0.0017f, 0.0010f, 0.0015f, -0.0141f, 0.0080f, 0.0025f, 0.0073f, -0.0187f, 0.0031f, -0.0118f, -0.0040f, 0.0052f, 0.0009f, -0.0086f, 0.0000f, -0.0153f, 0.0115f, -0.0020f, 0.0112f, -0.0052f, -0.0052f, -0.0077f, 0.0091f, -0.0070f, 0.0065f, -0.0039f, -0.0198f, -0.0056f, -0.0118f, 0.0004f, -0.0117f, 0.0092f, -0.0009f, -0.0016f, 0.0066f, 0.0097f, -0.0002f, -0.0077f, -0.0178f, -0.0069f, -0.0062f, 0.0011f, -0.0034f, 0.0069f, -0.0061f, -0.0006f, 0.0118f, 0.0034f, -0.0007f, -0.0060f, -0.0064f, -0.0086f, -0.0055f, 0.0076f, -0.0022f, -0.0135f, 0.0177f, 0.0032f, -0.0141f, -0.0045f, 0.0013f, 0.0170f, -0.0111f, 0.0097f, 0.0139f, -0.0063f, -0.0028f, -0.0102f, -0.0021f, -0.0004f, 0.0066f, 0.0109f, -0.0075f, -0.0198f, -0.0003f, 0.0029f, 0.0025f, -0.0032f, 0.0013f, 0.0152f, 0.0038f, -0.0037f, -0.0049f, -0.0016f, 0.0165f, -0.0018f, -0.0003f, -0.0046f, 0.0110f, 0.0197f, 0.0044f, 0.0008f, 0.0004f, -0.0238f, 0.0075f, 0.0013f, 0.0044f, -0.0071f, -0.0039f, -0.0041f, 0.0102f, -0.0036f, 0.0209f, 0.0044f, -0.0128f, -0.0012f, -0.0065f, -0.0219f, 0.0160f, 0.0070f, 0.0054f, 0.0015f, -0.0138f},
    {-0.0049f, 0.0085f, -0.0105f, -0.0253f, -0.0021f, -0.0014f, 0.0013f, 0.0073f, 0.0064f, 0.0026f, 0.0119f, -0.0153f, 0.0050f, 0.0062f, -0.0124f, -0.0150f, -0.0075f, -0.0066f, 0.0076f, -0.0062f, -0.0085f, -0.0062f, 0.0114f, 0.0001f, -0.0017f, -0.0011f, 0.0128f, -0.0075f, 0.0130f, 0.0021f, -0.0015f, 0.0250f, -0.0105f, -0.0035f, -0.0123f, 0.0095f, 0.0168f, 0.0170f, 0.0124f, -0.0020f, -0.0037f, -0.0167f, 0.0204f, 0.0047f, -0.0049f, 0.0134f, -0.0098f, 0.0041f, -0.0016f, 0.0064f, -0.0006f, -0.0145f, 0.0007f, 0.0105f, -0.0003f, 0.0077f, -0.0105f, -0.0002f, -0.0062f, 0.0075f, 0.0003f, 0.0069f, 0.0109f, 0.0068f, 0.0027f, -0.0100f, -0.0001f, -0.0054f, -0.0034f, -0.0038f, -0.0098f, -0.0196f, -0.0067f, 0.0019f, -0.0135f, 0.0003f, 0.0190f, 0.0102f, 0.0164f, 0.0038f, 0.0117f, -0.0072f, -0.0063f, -0.0274f, 0.0118f, 0.0154f, -0.0056f, -0.0026f, -0.0076f, 0.0038f, 0.0112f, -0.0174f, 0.0042f, -0.0028f, 0.0012f, 0.0046f, -0.0019f, -0.0009f, -0.0021f, 0.0098f, 0.0042f, 0.0021f, -0.0125f, -0.0037f, 0.0090f, 0.0003f, 0.0066f, 0.0177f, 0.0104f, 0.0010f, -0.0051f, -0.0254f, -0.0017f, -0.0033f, 0.0039f, -0.0016f, -0.0031f, -0.0177f, -0.0093f, 0.0048f, 0.0173f, -0.0010f, 0.0033f, 0.0095f, -0.0081f, 0.0038f, -0.0075f, 0.0086f},
    {0.0015f, 0.0031f, -0.0078f, 0.0071f, 0.0210f, -0.0101f, -0.0035f, 0.0023f, 0.0078f, -0.0056f, -0.0284f, 0.0135f, 0.0076f, -0.0175f, -0.0060f, 0.0157f, 0.0145f, 0.0094f, -0.0017f, 0.0008f, -0.0012f, 0.0112f, -0.0086f, -0.0081f, 0.0102f, -0.0004f, 0.0137f, -0.0067f, -0.0006f, -0.0092f, 0.0001f, -0.0148f, -0.0049f, -0.0144f, 0.0070f, 0.0072f, -0.0173f, 0.0137f, 0.0251f, 0.0005f, -0.0065f, 0.0282f, -0.0131f, 0.0002f, 0.0018f, 0.0136f, 0.0035f, -0.0050f, -0.0094f, -0.0034f, -0.0100f, 0.0005f, -0.0057f, -0.0149f, 0.0125f, -0.0050f, -0.0127f, -0.0016f, 0.0007f, -0.0175f, 0.0033f, -0.0105f, 0.0171f, 0.0051f, -0.0040f, -0.0075f, -0.0011f, 0.0061f, -0.0002f, -0.0022f, 0.0005f, -0.0061f, -0.0035f, -0.0209f, 0.0097f, 0.0031f, -0.0077f, 0.0190f, 0.0008f, -0.0104f, 0.0086f, 0.0040f, 0.0041f, -0.0043f, 0.0045f, -0.0026f, 0.0055f, -0.0191f, -0.0044f, 0.0171f, -0.0077f, -0.0060f, -0.0044f, -0.0121f, -0.0221f, -0.0023f, 0.0014f, -0.0004f, -0.0014f, 0.0006f, 0.0102f, -0.0020f, -0.0055f, -0.0028f, 0.0059f, 0.0140f, -0.0063f, 0.0010f, 0.0034f, -0.0099f, 0.0002f, -0.0146f, -0.0177f, 0.0036f, -0.0038f, 0.0020f, -0.0000f, -0.0097f, -0.0004f, -0.0123f, 0.0140f, -0.0136f, -0.0020f, -0.0104f, 0.0057f, -0.0032f, -0.0053f, 0.0085f},
    {0.0003f, 0.0053f, -0.0098f, -0.0140f, 0.0012f, -0.0032f, 0.0062f, -0.0008f, 0.0020f, -0.0162f, 0.0188f, -0.0017f, 0.0070f, -0.0084f, 0.0031f, -0.0130f, 0.0045f, -0.0035f, 0.0003f, 0.0069f, -0.0122f, -0.0069f, 0.0048f, 0.0210f, -0.0013f, 0.0059f, -0.0012f, 0.0194f, -0.0176f, 0.0009f, -0.0162f, -0.0250f, 0.0030f, 0.0014f, -0.0028f, -0.0011f, 0.0310f, -0.0023f, 0.0052f, -0.0065f, 0.0029f, -0.0024f, -0.0041f, 0.0182f, 0.0118f, 0.0015f, -0.0231f, -0.0036f, 0.0271f, -0.0023f, 0.0111f, 0.0144f, 0.0021f, -0.0084f, -0.0244f, 0.0068f, -0.0082f, 0.0018f, -0.0125f, -0.0027f, 0.0003f, 0.0027f, -0.0112f, 0.0119f, -0.0060f, -0.0168f, -0.0012f, 0.0003f, 0.0016f, 0.0136f, -0.0024f, -0.0012f, -0.0110f, 0.0082f, 0.0018f, -0.0041f, -0.0190f, 0.0144f, -0.0123f, -0.0060f, 0.0036f, -0.0120f, -0.0148f, -0.0213f, 0.0072f, -0.0055f, 0.0292f, -0.0100f, -0.0093f, -0.0057f, 0.0024f, -0.0047f, 0.0062f, -0.0098f, -0.0138f, -0.0180f, -0.0222f, -0.0051f, -0.0030f, -0.0062f, 0.0124f, 0.0122f, -0.0032f, -0.0179f, -0.0056f, -0.0061f, -0.0066f, -0.0070f, -0.0065f, -0.0038f, -0.0064f, 0.0022f, 0.0036f, -0.0092f, 0.0127f, -0.0098f, -0.0160f, 0.0039f, -0.0081f, 0.0032f, -0.0239f, 0.0139f, 0.0067f, -0.0150f, -0.0148f, 0.0168f, -0.0075f, -0.0083f},
    {-0.0227f, -0.0034f, -0.0023f, 0.0072f, -0.0139f, -0.0152f, 0.0045f, 0.0101f, -0.0157f, 0.0108f, 0.0004f, 0.0108f, -0.0007f, -0.0253f, -0.0015f, 0.0106f, -0.0090f, -0.0039f, -0.0017f, -0.0290f, 0.0168f, -0.0090f, 0.0052f, -0.0009f, 0.0126f, 0.0041f, -0.0024f, -0.0089f, 0.0079f, -0.0187f, 0.0065f, -0.0110f, 0.0125f, 0.0016f, 0.0065f, 0.0008f, -0.0175f, -0.0084f, 0.0068f, 0.0017f, 0.0118f, 0.0040f, -0.0096f, -0.0080f, 0.0010f, -0.0230f, 0.0167f, 0.0044f, 0.0123f, -0.0158f, 0.0125f, 0.0223f, -0.0133f, 0.0077f, -0.0000f, -0.0155f, 0.0049f, 0.0084f, -0.0060f, 0.0117f, -0.0167f, -0.0149f, 0.0014f, 0.0002f, -0.0072f, 0.0080f, 0.0053f, 0.0086f, -0.0012f, 0.0060f, -0.0045f, 0.0205f, -0.0081f, 0.0210f, 0.0003f, -0.0137f, 0.0137f, 0.0013f, 0.0085f, 0.0122f, 0.0034f, -0.0059f, 0.0099f, -0.0000f, 0.0068f, -0.0215f, 0.0044f, -0.0064f, 0.0165f, 0.0062f, 0.0023f, 0.0049f, -0.0099f, 0.0162f, 0.0199f, 0.0039f, 0.0159f, -0.0056f, -0.0079f, 0.0005f, 0.0043f, -0.0040f, 0.0055f, 0.0031f, -0.0100f, 0.0051f, 0.0086f, 0.0017f, 0.0116f, -0.0121f, 0.0047f, -0.0116f, -0.0111f, -0.0063f, -0.0094f, -0.0055f, -0.0020f, 0.0084f, -0.0032f, -0.0159f, 0.0115f, -0.0084f, -0.0006f, 0.0045f, 0.0020f, 0.0110f, 0.0047f, -0.0086f},
    {0.0218f, 0.0020f, -0.0015f, 0.0096f, 0.0026f, 0.0040f, 0.0249f, -0.0027f, -0.0032f, 0.0012f, 0.0107f, -0.0151f, -0.0197f, -0.0059f, -0.0163f, -0.0042f, 0.0050f, -0.0089f, -0.0142f, 0.0007f, 0.0087f, -0.0170f, 0.0083f, 0.0082f, 0.0096f, 0.0122f, 0.0220f, -0.0036f, 0.0011f, -0.0042f, 0.0000f, 0.0153f, -0.0134f, -0.0086f, 0.0138f, 0.0102f, -0.0037f, 0.0087f, 0.0035f, 0.0150f, 0.0007f, 0.0103f, 0.0264f, 0.0060f, 0.0005f, 0.0073f, -0.0037f, 0.0239f, 0.0019f, -0.0027f, -0.0083f, 0.0110f, 0.0086f, -0.0050f, 0.0058f, -0.0151f, 0.0018f, 0.0046f, 0.0171f, -0.0077f, -0.0128f, -0.0090f, -0.0134f, 0.0133f, 0.0155f, 0.0031f, 0.0122f, 0.0013f, -0.0009f, -0.0033f, -0.0031f, -0.0155f, 0.0026f, -0.0004f, 0.0074f, 0.0010f, -0.0016f, -0.0087f, 0.0007f, 0.0073f, -0.0114f, 0.0009f, 0.0024f, -0.0072f, -0.0059f, 0.0023f, -0.0113f, 0.0035f, -0.0090f, 0.0106f, 0.0233f, -0.0086f, 0.0054f, -0.0073f, 0.0104f, -0.0126f, 0.0048f, -0.0087f, -0.0020f, -0.0102f, 0.0082f, -0.0084f, 0.0056f, -0.0034f, -0.0011f, 0.0014f, -0.0076f, 0.0021f, 0.0153f, -0.0078f, 0.0117f, 0.0150f, -0.0082f, -0.0146f, 0.0030f, -0.0055f, 0.0188f, 0.0004f, -0.0080f, -0.0115f, 0.0109f, -0.0057f, 0.0004f, 0.0096f, -0.0048f, -0.0004f, -0.0002f, 0.0068f},
    {0.0059f, -0.0022f, 0.0006f, -0.0037f, -0.0147f, 0.0026f, 0.0189f, -0.0088f, -0.0077f, -0.0087f, 0.0072f, 0.0045f, -0.0016f, -0.0092f, 0.0009f, -0.0156f, 0.0014f, 0.0087f, -0.0125f, -0.0153f, 0.0158f, -0.0061f, 0.0114f, -0.0015f, -0.0016f, 0.0044f, -0.0089f, 0.0013f, -0.0038f, -0.0132f, 0.0034f, -0.0026f, -0.0016f, -0.0121f, 0.0159f, 0.0088f, 0.0096f, -0.0029f, -0.0172f, 0.0195f, -0.0006f, -0.0075f, 0.0042f, 0.0117f, -0.0002f, 0.0128f, 0.0108f, -0.0108f, -0.0067f, 0.0096f, -0.0271f, -0.0015f, -0.0143f, -0.0048f, -0.0030f, -0.0036f, -0.0055f, -0.0109f, 0.0229f, 0.0187f, -0.0116f, 0.0158f, -0.0040f, 0.0012f, -0.0006f, -0.0066f, 0.0098f, 0.0012f, -0.0048f, -0.0130f, -0.0089f, -0.0164f, 0.0001f, -0.0120f, -0.0027f, 0.0138f, 0.0120f, -0.0003f, -0.0009f, 0.0187f, 0.0052f, -0.0033f, -0.0142f, 0.0039f, 0.0083f, -0.0063f, 0.0029f, -0.0036f, -0.0019f, -0.0249f, -0.0022f, 0.0097f, -0.0063f, 0.0005f, -0.0076f, 0.0036f, -0.0022f, -0.0093f, 0.0133f, 0.0093f, -0.0061f, 0.0050f, 0.0055f, 0.0064f, -0.0169f, 0.0100f, -0.0057f, -0.0036f, 0.0264f, 0.0030f, -0.0039f, -0.0220f, 0.0139f, -0.0135f, -0.0100f, -0.0033f, 0.0142f, 0.0078f, -0.0016f, 0.0031f, -0.0060f, 0.0014f, 0.0007f, 0.0097f, 0.0097f, 0.0050f, -0.0037f, 0.0074f},
    {-0.0009f, -0.0108f, -0.0040f, 0.0008f, 0.0091f, -0.0018f, -0.0121f, 0.0006f, 0.0011f, 0.0019f, 0.0092f, 0.0102f, -0.0059f, -0.0062f, -0.0104f, 0.0070f, 0.0145f, -0.0031f, -0.0024f, 0.0147f, 0.0051f, 0.0044f, -0.0119f, 0.0068f, -0.0093f, -0.0113f, -0.0035f, -0.0059f, -0.0022f, -0.0144f, 0.0096f, 0.0113f, -0.0195f, 0.0098f, -0.0081f, 0.0086f, -0.0007f, 0.0003f, -0.0018f, 0.0121f, -0.0124f, 0.0061f, 0.0110f, 0.0072f, 0.0232f, -0.0053f, 0.0096f, -0.0011f, 0.0124f, -0.0001f, -0.0039f, 0.0131f, -0.0049f, -0.0141f, -0.0052f, 0.0062f, 0.0139f, 0.0011f, 0.0132f, -0.0136f, -0.0044f, -0.0029f, -0.0012f, 0.0008f, 0.0069f, -0.0045f, 0.0014f, -0.0005f, -0.0093f, -0.0011f, -0.0014f, -0.0017f, 0.0003f, 0.0007f, -0.0043f, 0.0127f, -0.0117f, -0.0072f, 0.0278f, -0.0104f, -0.0135f, 0.0073f, -0.0207f, -0.0024f, 0.0215f, -0.0154f, -0.0198f, -0.0150f, 0.0090f, 0.0112f, -0.0051f, 0.0068f, 0.0139f, 0.0179f, -0.0025f, -0.0230f, -0.0082f, -0.0042f, -0.0026f, -0.0019f, 0.0112f, 0.0127f, -0.0017f, 0.0110f, 0.0036f, 0.0006f, 0.0091f, 0.0007f, 0.0206f, -0.0144f, -0.0052f, -0.0013f, 0.0044f, 0.0127f, -0.0002f, -0.0142f, 0.0084f, 0.0076f, -0.0194f, -0.0000f, -0.0159f, -0.0066f, -0.0090f, 0.0081f, 0.0012f, -0.0128f, 0.0088f, -0.0143f},
    {0.0033f, -0.0081f, -0.0037f, 0.0050f, 0.0052f, 0.0134f, -0.0008f, 0.0031f, -0.0044f, 0.0018f, 0.0044f, -0.0010f, -0.0180f, 0.0033f, 0.0036f, -0.0068f, -0.0128f, 0.0148f, 0.0049f, -0.0023f, -0.0114f, -0.0082f, 0.0130f, 0.0014f, -0.0055f, 0.0051f, -0.0082f, 0.0150f, 0.0135f, -0.0047f, -0.0063f, -0.0262f, -0.0148f, -0.0134f, 0.0014f, -0.0033f, -0.0135f, -0.0028f, 0.0051f, 0.0053f, -0.0190f, -0.0013f, -0.0138f, 0.0090f, 0.0078f, -0.0090f, -0.0077f, -0.0046f, -0.0225f, 0.0034f, -0.0027f, 0.0097f, -0.0110f, -0.0062f, -0.0151f, -0.0100f, -0.0118f, 0.0100f, -0.0070f, 0.0012f, -0.0038f, -0.0127f, -0.0017f, 0.0060f, -0.0121f, 0.0081f, -0.0085f, -0.0048f, 0.0053f, -0.0066f, 0.0004f, -0.0031f, 0.0013f, -0.0238f, -0.0183f, 0.0062f, 0.0104f, -0.0091f, -0.0024f, 0.0029f, 0.0069f, -0.0203f, -0.0088f, -0.0033f, 0.0070f, 0.0250f, -0.0023f, -0.0141f, 0.0040f, 0.0132f, 0.0011f, -0.0091f, 0.0096f, 0.0066f, -0.0103f, 0.0038f, 0.0100f, 0.0118f, -0.0007f, -0.0036f, 0.0123f, -0.0121f, 0.0044f, -0.0137f, 0.0107f, -0.0026f, 0.0127f, 0.0049f, -0.0122f, 0.0142f, 0.0155f, 0.0088f, -0.0076f, -0.0031f, 0.0015f, -0.0070f, 0.0169f, 0.0014f, -0.0270f, 0.0034f, -0.0035f, -0.0008f, -0.0037f, 0.0081f, 0.0112f, 0.0028f, -0.0034f, -0.0004f},
    {0.0002f, -0.0080f, 0.0058f, 0.0046f, 0.0154f, 0.0126f, -0.0069f, 0.0082f, -0.0095f, 0.0070f, -0.0052f, -0.0102f, 0.0028f, -0.0267f, -0.0175f, -0.0018f, 0.0008f, -0.0037f, -0.0158f, -0.0082f, 0.0039f, 0.0058f, -0.0002f, 0.0116f, 0.0040f, -0.0075f, -0.0028f, -0.0140f, -0.0011f, 0.0111f, 0.0069f, 0.0140f, -0.0030f, 0.0135f, -0.0019f, 0.0147f, -0.0002f, 0.0071f, 0.0148f, -0.0019f, 0.0022f, 0.0129f, -0.0013f, -0.0132f, 0.0214f, -0.0047f, 0.0016f, 0.0116f, -0.0061f, -0.0101f, 0.0025f, -0.0179f, -0.0029f, 0.0024f, -0.0027f, -0.0154f, 0.0159f, 0.0010f, 0.0143f, -0.0026f, -0.0088f, 0.0027f, -0.0022f, -0.0118f, 0.0147f, -0.0062f, -0.0184f, 0.0133f, -0.0050f, -0.0061f, -0.0177f, 0.0174f, -0.0129f, 0.0006f, 0.0091f, 0.0042f, -0.0006f, -0.0170f, -0.0081f, 0.0019f, -0.0079f, 0.0020f, 0.0068f, 0.0096f, -0.0123f, 0.0220f, 0.0077f, -0.0000f, 0.0109f, 0.0237f, -0.0144f, -0.0023f, -0.0238f, 0.0019f, 0.0037f, -0.0004f, -0.0065f, -0.0205f, 0.0037f, 0.0146f, -0.0059f, 0.0044f, -0.0157f, 0.0046f, -0.0039f, -0.0076f, -0.0076f, -0.0039f, 0.0038f, -0.0131f, -0.0040f, -0.0004f, -0.0110f, 0.0180f, -0.0085f, -0.0067f, -0.0098f, 0.0180f, 0.0055f, -0.0094f, 0.0111f, 0.0020f, 0.0026f, -0.0034f, -0.0075f, 0.0034f, -0.0055f, 0.0182f},
    {-0.0127f, 0.0154f, -0.0011f, 0.0030f, 0.0083f, -0.0063f, 0.0086f, -0.0271f, -0.0072f, -0.0092f, -0.0125f, -0.0021f, 0.0039f, 0.0070f, 0.0024f, -0.0067f, 0.0037f, 0.0012f, 0.0094f, 0.0078f, 0.0003f, -0.0090f, -0.0065f, -0.0055f, -0.0032f, 0.0027f, 0.0072f, -0.0005f, 0.0002f, 0.0014f, -0.0052f, -0.0093f, -0.0176f, -0.0070f, 0.0047f, -0.0070f, -0.0024f, 0.0047f, 0.0052f, -0.0108f, 0.0100f, 0.0113f, -0.0113f, -0.0082f, 0.0119f, -0.0015f, -0.0222f, -0.0140f, -0.0025f, -0.0116f, -0.0041f, 0.0003f, 0.0146f, -0.0029f, 0.0107f, 0.0143f, 0.0143f, 0.0028f, -0.0196f, 0.0046f, 0.0105f, -0.0008f, 0.0174f, 0.0086f, 0.0057f, 0.0109f, 0.0033f, -0.0249f, -0.0050f, 0.0120f, -0.0081f, -0.0022f, -0.0104f, 0.0178f, 0.0168f, -0.0088f, 0.0015f, -0.0068f, 0.0061f, 0.0051f, 0.0081f, 0.0033f, 0.0294f, -0.0103f, -0.0171f, -0.0039f, -0.0157f, -0.0149f, -0.0100f, -0.0092f, -0.0095f, 0.0052f, -0.0051f, -0.0018f, 0.0089f, -0.0077f, -0.0026f, 0.0037f, -0.0194f, -0.0238f, 0.0035f, 0.0049f, 0.0206f, 0.0016f, 0.0082f, -0.0020f, 0.0030f, 0.0167f, -0.0212f, 0.0041f, 0.0214f, 0.0028f, 0.0165f, -0.0063f, -0.0003f, 0.0003f, -0.0222f, -0.0117f, -0.0110f, 0.0082f, 0.0087f, 0.0032f, 0.0082f, -0.0016f, 0.0120f, 0.0001f, 0.0006f, -0.0027f},
    {0.0068f, -0.0042f, 0.0098f, -0.0113f, -0.0110f, 0.0069f, -0.0009f, -0.0045f, 0.0089f, -0.0061f, -0.0020f, 0.0140f, 0.0154f, 0.0157f, -0.0028f, 0.0123f, -0.0095f, -0.0091f, -0.0235f, 0.0167f, -0.0086f, -0.0013f, -0.0091f, 0.0070f, -0.0038f, -0.0130f, 0.0044f, -0.0143f, -0.0084f, -0.0211f, -0.0142f, 0.0018f, -0.0196f, -0.0148f, -0.0000f, -0.0054f, 0.0199f, 0.0183f, -0.0087f, 0.0056f, 0.0075f, -0.0060f, -0.0150f, -0.0001f, -0.0017f, -0.0044f, 0.0044f, -0.0075f, -0.0115f, 0.0011f, 0.0039f, -0.0118f, 0.0093f, -0.0177f, -0.0058f, -0.0026f, -0.0064f, -0.0057f, 0.0187f, -0.0085f, 0.0244f, 0.0044f, 0.0009f, 0.0048f, 0.0253f, -0.0099f, -0.0112f, -0.0075f, 0.0003f, -0.0173f, 0.0002f, 0.0169f, 0.0015f, -0.0029f, -0.0062f, 0.0090f, -0.0083f, 0.0185f, 0.0193f, 0.0026f, -0.0001f, 0.0103f, 0.0109f, -0.0081f, -0.0053f, -0.0132f, 0.0041f, 0.0067f, -0.0135f, -0.0046f, -0.0135f, -0.0090f, 0.0055f, -0.0073f, -0.0030f, -0.0163f, 0.0019f, -0.0004f, -0.0073f, -0.0019f, 0.0018f, -0.0081f, -0.0148f, 0.0181f, -0.0063f, -0.0010f, 0.0101f, 0.0353f, -0.0124f, 0.0045f, -0.0071f, -0.0054f, -0.0072f, -0.0113f, -0.0004f, -0.0147f, 0.0095f, 0.0006f, 0.0042f, -0.0047f, -0.0037f, 0.0029f, -0.0116f, -0.0036f, -0.0086f, -0.0089f, -0.0211f, 0.0134f},
    {-0.0069f, 0.0116f, 0.0107f, -0.0129f, -0.0109f, 0.0256f, 0.0175f, -0.0003f, 0.0026f, -0.0063f, 0.0043f, -0.0072f, -0.0203f, -0.0132f, 0.0002f, -0.0113f, -0.0007f, -0.0107f, -0.0078f, 0.0085f, 0.0025f, -0.0001f, 0.0088f, 0.0048f, 0.0145f, -0.0046f, -0.0043f, -0.0130f, -0.0043f, 0.0096f, 0.0130f, 0.0096f, -0.0179f, 0.0108f, -0.0184f, 0.0090f, -0.0037f, 0.0070f, -0.0133f, 0.0117f, -0.0146f, -0.0067f, -0.0100f, -0.0175f, 0.0009f, 0.0181f, 0.0267f, 0.0010f, 0.0112f, 0.0023f, 0.0050f, -0.0034f, 0.0020f, 0.0054f, -0.0058f, -0.0008f, -0.0006f, 0.0083f, -0.0107f, -0.0005f, 0.0191f, 0.0116f, 0.0135f, 0.0002f, 0.0032f, 0.0100f, 0.0156f, -0.0195f, -0.0132f, 0.0131f, -0.0028f, -0.0067f, -0.0125f, -0.0056f, -0.0140f, 0.0209f, -0.0002f, -0.0006f, 0.0059f, 0.0096f, 0.0095f, 0.0107f, -0.0063f, -0.0030f, 0.0077f, -0.0053f, -0.0001f, 0.0040f, 0.0079f, -0.0178f, 0.0071f, -0.0023f, 0.0071f, 0.0078f, 0.0161f, 0.0135f, 0.0135f, 0.0144f, 0.0029f, 0.0003f, 0.0087f, 0.0073f, -0.0031f, 0.0040f, -0.0004f, -0.0085f, 0.0129f, 0.0006f, 0.0205f, -0.0163f, -0.0056f, 0.0003f, 0.0114f, 0.0040f, 0.0031f, -0.0113f, -0.0116f, 0.0032f, -0.0136f, -0.0053f, 0.0050f, -0.0098f, 0.0161f, 0.0122f, -0.0157f, -0.0093f, -0.0229f, -0.0078f},
    {0.0077f, -0.0041f, 0.0046f, -0.0152f, 0.0080f, -0.0056f, 0.0001f, -0.0009f, -0.0127f, -0.0115f, 0.0097f, 0.0040f, 0.0105f, 0.0032f, 0.0014f, -0.0173f, -0.0027f, -0.0003f, 0.0195f, 0.0069f, 0.0154f, 0.0060f, -0.0071f, 0.0012f, 0.0024f, -0.0094f, -0.0038f, -0.0021f, 0.0161f, -0.0208f, 0.0121f, -0.0094f, -0.0137f, 0.0118f, 0.0073f, 0.0125f, 0.0080f, 0.0206f, 0.0056f, -0.0016f, 0.0034f, 0.0124f, -0.0078f, -0.0065f, -0.0031f, -0.0210f, 0.0014f, -0.0189f, 0.0005f, 0.0087f, -0.0048f, 0.0168f, -0.0146f, 0.0119f, 0.0068f, -0.0172f, 0.0271f, -0.0006f, -0.0088f, -0.0141f, -0.0022f, -0.0013f, 0.0010f, -0.0030f, 0.0063f, -0.0039f, -0.0193f, -0.0015f, -0.0237f, 0.0035f, -0.0098f, 0.0016f, 0.0131f, -0.0095f, 0.0106f, -0.0043f, 0.0175f, -0.0037f, -0.0084f, 0.0069f, -0.0044f, -0.0084f, -0.0048f, -0.0004f, 0.0134f, -0.0193f, 0.0002f, 0.0062f, 0.0019f, 0.0131f, -0.0007f, -0.0018f, 0.0059f, 0.0010f, -0.0039f, 0.0052f, -0.0065f, -0.0061f, -0.0053f, 0.0135f, -0.0322f, 0.0040f, 0.0003f, -0.0168f, 0.0031f, 0.0048f, 0.0059f, -0.0265f, 0.0137f, -0.0074f, 0.0069f, 0.0074f, -0.0088f, 0.0066f, -0.0039f, -0.0207f, 0.0117f, -0.0078f, -0.0085f, -0.0040f, 0.0027f, -0.0006f, 0.0055f, -0.0134f, -0.0074f, -0.0012f, 0.0190f, -0.0011f},
    {0.0109f, 0.0004f, -0.0048f, -0.0025f, -0.0017f, 0.0060f, 0.0137f, 0.0036f, 0.0119f, -0.0096f, -0.0041f, -0.0072f, 0.0031f, -0.0036f, 0.0073f, -0.0093f, 0.0004f, 0.0069f, -0.0207f, 0.0212f, -0.0028f, -0.0203f, 0.0016f, 0.0003f, -0.0008f, 0.0099f, 0.0075f, 0.0030f, 0.0045f, -0.0010f, 0.0178f, -0.0148f, 0.0014f, 0.0007f, 0.0081f, -0.0084f, -0.0174f, 0.0016f, 0.0028f, 0.0149f, -0.0127f, 0.0115f, 0.0237f, -0.0038f, -0.0129f, -0.0041f, 0.0001f, 0.0056f, -0.0059f, 0.0156f, -0.0111f, -0.0174f, 0.0111f, -0.0227f, -0.0020f, 0.0312f, -0.0001f, -0.0112f, -0.0006f, -0.0005f, 0.0016f, 0.0066f, -0.0104f, 0.0169f, 0.0025f, 0.0073f, -0.0063f, 0.0129f, -0.0026f, 0.0028f, -0.0093f, -0.0100f, 0.0069f, -0.0044f, -0.0085f, -0.0064f, 0.0070f, -0.0063f, -0.0012f, 0.0002f, -0.0192f, -0.0147f, 0.0034f, -0.0074f, 0.0106f, 0.0097f, 0.0072f, 0.0182f, -0.0008f, 0.0065f, -0.0058f, 0.0245f, 0.0198f, 0.0001f, 0.0039f, 0.0136f, -0.0015f, -0.0066f, 0.0087f, 0.0008f, 0.0018f, -0.0083f, -0.0172f, 0.0024f, 0.0090f, -0.0023f, 0.0144f, -0.0070f, -0.0105f, -0.0007f, -0.0008f, 0.0077f, -0.0077f, 0.0137f, 0.0197f, -0.0004f, 0.0125f, -0.0106f, 0.0108f, 0.0105f, 0.0086f, -0.0002f, -0.0295f, -0.0064f, -0.0063f, -0.0098f, 0.0012f, -0.0042f},
    {-0.0082f, -0.0106f, -0.0072f, 0.0112f, -0.0066f, -0.0051f, -0.0046f, 0.0034f, 0.0046f, -0.0304f, 0.0102f, 0.0144f, -0.0105f, -0.0097f, -0.0045f, -0.0076f, 0.0022f, -0.0195f, -0.0112f, 0.0154f, -0.0093f, 0.0124f, 0.0036f, -0.0181f, 0.0064f, -0.0012f, -0.0046f, 0.0024f, 0.0047f, 0.0071f, 0.0118f, 0.0041f, -0.0138f, -0.0047f, 0.0294f, 0.0072f, 0.0237f, 0.0140f, 0.0024f, 0.0030f, -0.0004f, -0.0174f, 0.0002f, 0.0121f, -0.0060f, 0.0041f, 0.0085f, -0.0091f, -0.0045f, -0.0102f, -0.0082f, -0.0129f, -0.0090f, 0.0142f, -0.0092f, 0.0013f, -0.0050f, 0.0118f, 0.0131f, 0.0086f, 0.0031f, -0.0023f, -0.0119f, 0.0194f, -0.0076f, 0.0066f, 0.0106f, -0.0056f, 0.0104f, 0.0076f, 0.0173f, -0.0047f, -0.0129f, -0.0051f, 0.0021f, 0.0006f, -0.0039f, -0.0191f, 0.0047f, 0.0197f, 0.0046f, 0.0061f, 0.0057f, 0.0040f, 0.0093f, 0.0040f, -0.0031f, -0.0080f, -0.0025f, 0.0031f, -0.0032f, 0.0031f, 0.0044f, 0.0083f, 0.0128f, 0.0008f, -0.0131f, -0.0035f, 0.0004f, -0.0184f, 0.0139f, 0.0014f, 0.0038f, 0.0137f, -0.0063f, 0.0057f, -0.0011f, -0.0018f, -0.0077f, 0.0167f, -0.0038f, 0.0070f, -0.0188f, 0.0118f, 0.0105f, 0.0010f, -0.0023f, 0.0040f, 0.0229f, -0.0176f, 0.0078f, -0.0091f, -0.0002f, -0.0025f, -0.0043f, -0.0001f, -0.0113f, 0.0103f},
    {-0.0179f, 0.0054f, -0.0033f, -0.0117f, 0.0020f, -0.0156f, 0.0004f, -0.0142f, 0.0046f, -0.0092f, -0.0045f, 0.0029f, -0.0077f, -0.0006f, -0.0151f, 0.0063f, 0.0176f, 0.0279f, 0.0009f, 0.0079f, -0.0178f, 0.0150f, 0.0078f, -0.0048f, 0.0124f, -0.0025f, -0.0046f, 0.0048f, -0.0106f, 0.0102f, -0.0106f, -0.0105f, -0.0091f, 0.0076f, -0.0062f, -0.0135f, -0.0061f, -0.0003f, -0.0118f, -0.0115f, 0.0211f, -0.0086f, -0.0032f, -0.0037f, -0.0042f, 0.0062f, 0.0095f, -0.0031f, -0.0124f, 0.0127f, -0.0010f, 0.0173f, -0.0225f, 0.0020f, 0.0192f, -0.0035f, -0.0023f, 0.0030f, -0.0056f, -0.0031f, -0.0034f, -0.0063f, 0.0123f, 0.0046f, 0.0025f, 0.0081f, -0.0026f, -0.0077f, -0.0060f, 0.0000f, -0.0106f, -0.0050f, -0.0052f, 0.0212f, -0.0277f, -0.0018f, 0.0173f, 0.0012f, 0.0075f, 0.0010f, -0.0067f, -0.0224f, 0.0021f, -0.0078f, -0.0080f, -0.0050f, 0.0174f, 0.0240f, 0.0022f, -0.0046f, -0.0118f, 0.0047f, 0.0178f, -0.0025f, -0.0238f, 0.0067f, 0.0099f, -0.0159f, 0.0018f, 0.0045f, -0.0007f, -0.0079f, 0.0102f, -0.0040f, -0.0149f, -0.0205f, 0.0126f, 0.0062f, 0.0009f, -0.0044f, -0.0053f, -0.0108f, -0.0043f, -0.0212f, -0.0074f, -0.0031f, 0.0061f, -0.0004f, 0.0079f, 0.0135f, 0.0106f, 0.0047f, 0.0001f, -0.0098f, 0.0074f, 0.0168f, 0.0034f, 0.0192f},
    {-0.0153f, -0.0115f, 0.0086f, 0.0026f, 0.0131f, -0.0002f, -0.0087f, -0.0021f, -0.0153f, -0.0113f, 0.0097f, 0.0087f, 0.0036f, -0.0172f, -0.0036f, -0.0122f, 0.0118f, -0.0058f, -0.0109f, 0.0003f, -0.0064f, 0.0148f, -0.0073f, -0.0140f, -0.0215f, -0.0003f, -0.0056f, -0.0143f, 0.0119f, 0.0067f, -0.0003f, 0.0136f, 0.0066f, -0.0082f, -0.0104f, 0.0082f, 0.0040f, 0.0017f, -0.0085f, 0.0061f, -0.0076f, -0.0010f, 0.0145f, -0.0066f, -0.0157f, -0.0105f, 0.0099f, 0.0025f, -0.0013f, -0.0051f, 0.0049f, -0.0085f, 0.0031f, -0.0073f, -0.0090f, -0.0064f, -0.0038f, -0.0005f, 0.0024f, -0.0369f, -0.0081f, -0.0039f, 0.0151f, -0.0108f, 0.0016f, 0.0150f, -0.0131f, 0.0039f, -0.0080f, -0.0050f, -0.0080f, -0.0073f, 0.0272f, 0.0084f, 0.0110f, 0.0049f, -0.0161f, 0.0039f, 0.0107f, -0.0085f, 0.0097f, 0.0070f, 0.0185f, -0.0042f, -0.0110f, -0.0036f, 0.0144f, -0.0183f, -0.0207f, 0.0009f, -0.0044f, 0.0001f, 0.0095f, -0.0055f, -0.0187f, 0.0204f, -0.0100f, -0.0106f, 0.0110f, -0.0038f, -0.0006f, 0.0048f, 0.0108f, -0.0033f, 0.0152f, -0.0214f, 0.0076f, -0.0084f, 0.0137f, 0.0014f, -0.0067f, 0.0066f, 0.0089f, 0.0064f, -0.0103f, -0.0048f, -0.0000f, -0.0004f, 0.0075f, -0.0201f, 0.0033f, -0.0029f, -0.0084f, -0.0074f, -0.0021f, -0.0360f, -0.0070f, -0.0088f},
    {0.0053f, -0.0081f, -0.0022f, 0.0154f, 0.0099f, 0.0090f, -0.0050f, 0.0054f, -0.0023f, -0.0020f, 0.0041f, -0.0060f, 0.0149f, -0.0016f, 0.0062f, 0.0146f, 0.0103f, -0.0141f, 0.0045f, 0.0085f, 0.0089f, -0.0111f, -0.0066f, 0.0099f, -0.0076f, -0.0030f, 0.0158f, -0.0005f, -0.0073f, -0.0088f, 0.0033f, -0.0133f, -0.0025f, 0.0033f, 0.0130f, 0.0067f, -0.0071f, 0.0118f, -0.0030f, -0.0124f, -0.0017f, 0.0144f, 0.0017f, 0.0001f, 0.0164f, -0.0143f, -0.0129f, -0.0162f, 0.0037f, 0.0017f, 0.0154f, 0.0024f, -0.0040f, 0.0000f, 0.0012f, -0.0167f, 0.0271f, 0.0052f, 0.0021f, 0.0062f, 0.0071f, -0.0014f, -0.0063f, 0.0060f, 0.0039f, -0.0081f, 0.0142f, 0.0029f, 0.0073f, 0.0139f, 0.0002f, 0.0032f, 0.0081f, -0.0073f, 0.0005f, 0.0013f, -0.0096f, 0.0232f, -0.0141f, -0.0130f, 0.0131f, 0.0071f, -0.0103f, 0.0061f, 0.0147f, -0.0003f, 0.0260f, -0.0172f, 0.0069f, 0.0117f, 0.0089f, -0.0020f, -0.0029f, 0.0044f, 0.0082f, 0.0060f, 0.0104f, -0.0102f, -0.0023f, -0.0094f, -0.0039f, 0.0102f, 0.0011f, 0.0261f, 0.0019f, 0.0006f, 0.0011f, -0.0064f, -0.0006f, 0.0113f, 0.0011f, -0.0079f, -0.0093f, -0.0045f, 0.0007f, 0.0119f, -0.0134f, -0.0032f, 0.0014f, -0.0183f, -0.0083f, -0.0068f, -0.0080f, 0.0019f, -0.0016f, -0.0055f, 0.0043f, 0.0172f},
    {0.0164f, -0.0192f, 0.0058f, -0.0018f, 0.0016f, -0.0040f, 0.0012f, 0.0015f, -0.0058f, -0.0090f, -0.0045f, 0.0023f, 0.0060f, 0.0085f, -0.0049f, 0.0028f, 0.0096f, 0.0117f, -0.0006f, -0.0022f, 0.0019f, -0.0115f, -0.0019f, 0.0074f, 0.0064f, -0.0027f, 0.0022f, -0.0082f, 0.0070f, -0.0008f, -0.0028f, -0.0036f, -0.0006f, -0.0045f, 0.0066f, -0.0040f, 0.0159f, 0.0147f, -0.0089f, 0.0007f, -0.0065f, -0.0033f, 0.0200f, -0.0031f, 0.0036f, 0.0054f, -0.0100f, -0.0085f, -0.0121f, -0.0089f, -0.0285f, 0.0054f, 0.0205f, 0.0015f, -0.0142f, -0.0064f, -0.0046f, -0.0102f, 0.0086f, 0.0081f, -0.0116f, 0.0073f, 0.0153f, 0.0190f, 0.0287f, -0.0090f, 0.0282f, -0.0035f, -0.0059f, 0.0033f, -0.0058f, 0.0040f, -0.0132f, -0.0024f, 0.0129f, -0.0006f, 0.0014f, 0.0048f, 0.0117f, -0.0166f, 0.0058f, -0.0027f, 0.0017f, 0.0106f, -0.0119f, -0.0101f, -0.0194f, -0.0055f, 0.0133f, -0.0012f, -0.0134f, -0.0049f, -0.0149f, -0.0113f, 0.0039f, -0.0117f, 0.0111f, -0.0007f, 0.0009f, -0.0028f, 0.0077f, 0.0078f, 0.0034f, 0.0056f, -0.0021f, 0.0054f, -0.0034f, 0.0000f, -0.0027f, -0.0046f, -0.0069f, 0.0047f, 0.0131f, 0.0117f, -0.0126f, 0.0129f, -0.0032f, 0.0060f, -0.0091f, 0.0014f, 0.0031f, -0.0148f, 0.0061f, 0.0135f, -0.0017f, 0.0136f, -0.0019f, 0.0085f},
    {-0.0222f, 0.0242f, 0.0150f, -0.0028f, -0.0197f, 0.0029f, -0.0144f, 0.0045f, 0.0041f, -0.0094f, 0.0112f, 0.0080f, 0.0098f, 0.0001f, -0.0141f, 0.0098f, -0.0027f, -0.0139f, 0.0135f, 0.0210f, -0.0004f, 0.0216f, 0.0010f, -0.0038f, -0.0063f, 0.0164f, -0.0078f, 0.0073f, -0.0056f, -0.0046f, 0.0103f, -0.0038f, -0.0040f, 0.0113f, 0.0160f, 0.0064f, -0.0066f, -0.0050f, 0.0008f, 0.0032f, -0.0099f, 0.0072f, 0.0009f, -0.0172f, -0.0093f, -0.0050f, -0.0007f, 0.0189f, 0.0024f, -0.0084f, 0.0022f, -0.0035f, 0.0032f, 0.0058f, 0.0121f, -0.0003f, 0.0164f, 0.0091f, -0.0071f, 0.0221f, 0.0033f, -0.0084f, 0.0165f, 0.0207f, -0.0003f, -0.0050f, -0.0017f, 0.0071f, 0.0128f, 0.0057f, 0.0010f, 0.0150f, -0.0031f, 0.0103f, -0.0029f, 0.0043f, -0.0011f, -0.0006f, -0.0038f, 0.0134f, -0.0073f, -0.0074f, 0.0213f, 0.0098f, -0.0239f, -0.0057f, -0.0181f, -0.0095f, -0.0314f, -0.0014f, -0.0114f, 0.0006f, -0.0162f, 0.0008f, -0.0041f, 0.0150f, 0.0141f, 0.0079f, -0.0032f, 0.0199f, -0.0155f, -0.0141f, -0.0008f, 0.0226f, -0.0020f, -0.0019f, -0.0144f, 0.0095f, 0.0095f, 0.0079f, -0.0063f, -0.0070f, -0.0129f, 0.0008f, -0.0108f, -0.0118f, -0.0042f, -0.0049f, -0.0054f, 0.0047f, 0.0008f, -0.0029f, 0.0018f, -0.0099f, 0.0011f, 0.0015f, -0.0151f, 0.0100f},
    {-0.0088f, 0.0010f, 0.0116f, 0.0093f, 0.0005f, -0.0037f, 0.0095f, 0.0068f, -0.0062f, -0.0080f, -0.0207f, 0.0014f, -0.0008f, 0.0113f, 0.0036f, 0.0134f, -0.0070f, 0.0114f, -0.0053f, 0.0078f, -0.0145f, 0.0023f, -0.0197f, -0.0027f, 0.0044f, -0.0052f, -0.0106f, 0.0084f, -0.0011f, -0.0049f, 0.0005f, 0.0264f, 0.0115f, 0.0116f, 0.0044f, 0.0017f, -0.0240f, -0.0065f, -0.0047f, -0.0187f, -0.0116f, -0.0198f, -0.0003f, 0.0082f, 0.0111f, 0.0043f, -0.0097f, -0.0193f, -0.0175f, -0.0127f, -0.0089f, -0.0016f, -0.0101f, 0.0034f, -0.0023f, 0.0001f, 0.0114f, -0.0117f, 0.0042f, -0.0001f, -0.0033f, 0.0089f, 0.0088f, -0.0096f, -0.0018f, 0.0028f, -0.0028f, 0.0057f, 0.0028f, 0.0183f, -0.0153f, -0.0012f, -0.0091f, 0.0060f, -0.0162f, 0.0036f, -0.0063f, -0.0073f, -0.0145f, -0.0048f, 0.0109f, -0.0002f, 0.0064f, 0.0166f, 0.0026f, -0.0056f, 0.0047f, -0.0055f, -0.0051f, -0.0153f, 0.0092f, -0.0039f, 0.0019f, -0.0104f, 0.0044f, -0.0076f, -0.0014f, 0.0089f, 0.0080f, -0.0001f, -0.0177f, 0.0298f, 0.0176f, 0.0073f, -0.0075f, -0.0012f, -0.0054f, 0.0127f, 0.0027f, -0.0078f, -0.0047f, 0.0113f, 0.0160f, 0.0152f, 0.0076f, -0.0025f, -0.0323f, 0.0030f, 0.0000f, 0.0014f, 0.0006f, -0.0133f, 0.0056f, 0.0063f, 0.0068f, 0.0095f, 0.0060f, -0.0041f},
    {-0.0007f, 0.0010f, 0.0010f, 0.0100f, 0.0067f, 0.0207f, 0.0220f, 0.0008f, -0.0384f, 0.0124f, -0.0054f, -0.0082f, -0.0040f, -0.0045f, 0.0062f, -0.0155f, -0.0108f, 0.0035f, 0.0063f, 0.0064f, -0.0077f, -0.0098f, -0.0048f, 0.0024f, 0.0149f, -0.0205f, -0.0024f, -0.0134f, -0.0166f, 0.0097f, 0.0055f, 0.0045f, 0.0092f, -0.0048f, -0.0043f, 0.0218f, -0.0025f, 0.0078f, 0.0003f, -0.0185f, -0.0205f, -0.0058f, 0.0106f, 0.0079f, 0.0092f, -0.0097f, 0.0161f, -0.0096f, 0.0023f, -0.0001f, -0.0017f, 0.0134f, -0.0070f, -0.0135f, 0.0002f, -0.0040f, 0.0338f, 0.0069f, -0.0041f, -0.0106f, -0.0188f, -0.0102f, 0.0011f, 0.0141f, 0.0112f, 0.0022f, -0.0034f, 0.0025f, -0.0051f, 0.0172f, -0.0019f, -0.0009f, -0.0222f, -0.0020f, 0.0083f, -0.0105f, -0.0075f, 0.0079f, -0.0148f, 0.0104f, -0.0052f, -0.0038f, -0.0110f, 0.0036f, 0.0246f, 0.0078f, -0.0087f, 0.0113f, -0.0033f, 0.0136f, 0.0080f, -0.0294f, -0.0098f, 0.0094f, 0.0015f, -0.0102f, -0.0063f, -0.0189f, -0.0008f, 0.0223f, 0.0080f, 0.0217f, 0.0091f, 0.0103f, 0.0199f, 0.0037f, -0.0019f, 0.0104f, 0.0146f, -0.0047f, -0.0072f, 0.0015f, 0.0083f, 0.0079f, -0.0142f, 0.0191f, -0.0062f, -0.0026f, -0.0089f, 0.0270f, 0.0026f, -0.0085f, 0.0086f, 0.0077f, -0.0019f, 0.0086f, -0.0084f, -0.0049f},
    {-0.0201f, -0.0130f, 0.0180f, 0.0164f, 0.0011f, 0.0165f, -0.0017f, -0.0023f, 0.0006f, -0.0013f, -0.0022f, 0.0111f, 0.0015f, 0.0070f, 0.0104f, 0.0040f, -0.0098f, -0.0135f, 0.0016f, -0.0018f, 0.0012f, -0.0003f, 0.0264f, -0.0133f, -0.0198f, 0.0033f, -0.0041f, 0.0031f, 0.0056f, 0.0128f, -0.0149f, -0.0055f, 0.0043f, 0.0077f, 0.0220f, 0.0095f, -0.0007f, -0.0080f, -0.0053f, -0.0059f, 0.0064f, 0.0026f, -0.0131f, -0.0044f, 0.0088f, 0.0039f, 0.0056f, 0.0039f, 0.0166f, 0.0024f, -0.0039f, -0.0092f, 0.0025f, -0.0244f, -0.0019f, -0.0021f, -0.0137f, -0.0091f, 0.0081f, 0.0023f, 0.0010f, 0.0031f, 0.0009f, 0.0120f, 0.0012f, -0.0147f, 0.0160f, 0.0033f, -0.0058f, -0.0126f, 0.0039f, -0.0012f, 0.0157f, -0.0035f, -0.0085f, 0.0093f, 0.0092f, 0.0017f, 0.0067f, -0.0007f, 0.0025f, 0.0117f, 0.0068f, -0.0019f, 0.0135f, -0.0237f, 0.0205f, -0.0172f, -0.0065f, -0.0007f, -0.0017f, 0.0101f, -0.0102f, 0.0026f, -0.0057f, 0.0030f, -0.0007f, 0.0012f, -0.0053f, -0.0047f, 0.0028f, 0.0091f, -0.0055f, -0.0086f, 0.0063f, -0.0005f, 0.0083f, -0.0090f, -0.0177f, -0.0052f, -0.0077f, -0.0005f, -0.0064f, 0.0073f, -0.0029f, 0.0014f, 0.0020f, 0.0021f, -0.0000f, 0.0051f, -0.0076f, 0.0140f, -0.0024f, -0.0131f, 0.0019f, -0.0082f, 0.0063f, 0.0221f},
    {-0.0079f, 0.0038f, -0.0177f, 0.0045f, -0.0081f, -0.0064f, -0.0112f, 0.0075f, 0.0100f, 0.0002f, -0.0089f, 0.0153f, -0.0075f, -0.0218f, 0.0047f, -0.0108f, 0.0097f, -0.0037f, 0.0062f, 0.0138f, -0.0116f, -0.0059f, 0.0002f, 0.0154f, -0.0065f, -0.0059f, 0.0041f, -0.0059f, 0.0011f, -0.0155f, 0.0224f, -0.0133f, -0.0032f, -0.0003f, 0.0193f, -0.0133f, 0.0196f, 0.0092f, 0.0048f, -0.0097f, 0.0055f, -0.0072f, 0.0129f, -0.0097f, -0.0010f, -0.0049f, -0.0101f, 0.0076f, 0.0060f, 0.0122f, -0.0178f, 0.0106f, 0.0250f, -0.0045f, 0.0188f, -0.0028f, -0.0138f, -0.0027f, 0.0105f, -0.0084f, -0.0060f, 0.0059f, -0.0000f, 0.0052f, 0.0023f, 0.0045f, -0.0048f, 0.0016f, -0.0091f, 0.0128f, -0.0065f, 0.0112f, -0.0024f, 0.0019f, -0.0052f, -0.0095f, -0.0175f, -0.0105f, -0.0034f, 0.0016f, 0.0104f, -0.0043f, -0.0079f, -0.0148f, 0.0047f, 0.0138f, 0.0126f, 0.0068f, 0.0060f, 0.0165f, 0.0029f, 0.0065f, -0.0025f, -0.0136f, -0.0068f, -0.0001f, 0.0006f, 0.0198f, 0.0011f, 0.0126f, -0.0044f, -0.0037f, -0.0124f, -0.0072f, 0.0056f, -0.0003f, 0.0095f, 0.0019f, -0.0033f, 0.0217f, -0.0009f, 0.0121f, -0.0040f, 0.0069f, 0.0093f, 0.0019f, -0.0228f, 0.0005f, 0.0126f, 0.0053f, 0.0050f, -0.0172f, -0.0072f, 0.0041f, 0.0041f, 0.0127f, -0.0020f, 0.0041f},
    {0.0001f, -0.0092f, -0.0227f, 0.0043f, 0.0029f, -0.0064f, -0.0164f, 0.0065f, -0.0027f, 0.0055f, 0.0182f, -0.0223f, -0.0070f, -0.0024f, 0.0148f, -0.0160f, 0.0191f, 0.0014f, -0.0007f, -0.0023f, -0.0036f, 0.0101f, -0.0092f, 0.0034f, -0.0037f, -0.0076f, 0.0249f, 0.0041f, 0.0055f, 0.0114f, -0.0138f, 0.0178f, -0.0251f, -0.0077f, -0.0044f, 0.0058f, 0.0019f, 0.0007f, 0.0008f, -0.0096f, -0.0153f, 0.0073f, 0.0073f, 0.0158f, -0.0077f, 0.0079f, -0.0032f, 0.0121f, 0.0112f, 0.0023f, -0.0033f, 0.0096f, 0.0064f, -0.0069f, -0.0134f, -0.0031f, 0.0151f, 0.0120f, -0.0111f, -0.0116f, 0.0127f, -0.0113f, 0.0050f, -0.0071f, 0.0161f, -0.0083f, 0.0108f, 0.0008f, 0.0028f, -0.0198f, -0.0222f, -0.0023f, 0.0024f, -0.0115f, -0.0114f, 0.0066f, 0.0055f, -0.0013f, 0.0075f, -0.0123f, -0.0032f, 0.0166f, 0.0021f, 0.0007f, 0.0229f, -0.0141f, 0.0078f, 0.0163f, -0.0039f, 0.0080f, -0.0104f, -0.0068f, 0.0048f, 0.0080f, 0.0113f, 0.0157f, -0.0007f, 0.0128f, -0.0029f, 0.0101f, 0.0020f, 0.0037f, 0.0056f, -0.0157f, -0.0108f, 0.0004f, -0.0168f, 0.0084f, 0.0090f, 0.0036f, -0.0112f, 0.0146f, 0.0204f, 0.0011f, 0.0051f, 0.0018f, 0.0064f, -0.0008f, 0.0002f, 0.0091f, 0.0243f, -0.0139f, -0.0010f, -0.0118f, 0.0159f, -0.0051f, -0.0152f, 0.0064f},
    {0.0173f, 0.0076f, 0.0018f, 0.0041f, 0.0158f, -0.0091f, -0.0015f, -0.0043f, -0.0118f, -0.0034f, 0.0105f, 0.0045f, 0.0064f, 0.0010f, 0.0056f, -0.0074f, -0.0034f, 0.0021f, 0.0032f, 0.0028f, -0.0003f, -0.0043f, 0.0337f, 0.0091f, 0.0045f, -0.0023f, -0.0058f, -0.0014f, 0.0019f, -0.0188f, -0.0152f, -0.0060f, 0.0021f, -0.0024f, 0.0151f, -0.0148f, -0.0080f, 0.0186f, 0.0027f, 0.0090f, 0.0201f, -0.0069f, -0.0004f, -0.0028f, -0.0193f, -0.0016f, 0.0084f, 0.0057f, 0.0075f, -0.0035f, -0.0064f, 0.0127f, -0.0052f, 0.0029f, 0.0014f, 0.0143f, 0.0097f, -0.0121f, -0.0119f, 0.0058f, -0.0006f, -0.0045f, 0.0099f, 0.0005f, 0.0004f, 0.0069f, -0.0046f, 0.0143f, -0.0075f, 0.0064f, 0.0140f, -0.0140f, -0.0036f, 0.0111f, 0.0108f, -0.0002f, -0.0076f, 0.0096f, 0.0114f, -0.0125f, -0.0116f, 0.0024f, 0.0083f, -0.0038f, 0.0066f, -0.0072f, -0.0214f, -0.0047f, -0.0003f, -0.0036f, -0.0123f, -0.0181f, -0.0039f, 0.0090f, 0.0127f, 0.0119f, -0.0082f, -0.0103f, 0.0057f, 0.0080f, 0.0038f, -0.0212f, -0.0066f, 0.0002f, 0.0056f, 0.0068f, 0.0015f, 0.0035f, 0.0013f, 0.0074f, 0.0032f, 0.0018f, -0.0027f, 0.0003f, 0.0048f, 0.0024f, 0.0055f, 0.0141f, 0.0034f, -0.0065f, 0.0100f, -0.0136f, -0.0108f, 0.0034f, 0.0051f, -0.0114f, -0.0050f, -0.0061f},
    {-0.0051f, 0.0108f, 0.0067f, -0.0002f, -0.0032f, -0.0139f, 0.0137f, 0.0062f, -0.0073f, 0.0071f, -0.0015f, -0.0044f, 0.0044f, -0.0081f, -0.0030f, 0.0020f, -0.0054f, 0.0069f, 0.0193f, -0.0082f, -0.0152f, -0.0207f, 0.0014f, -0.0067f, 0.0026f, 0.0013f, -0.0177f, -0.0183f, 0.0014f, 0.0012f, -0.0035f, -0.0161f, 0.0048f, 0.0127f, 0.0032f, -0.0084f, -0.0003f, -0.0091f, 0.0124f, 0.0011f, -0.0182f, -0.0030f, 0.0054f, -0.0034f, -0.0025f, -0.0101f, 0.0052f, -0.0060f, -0.0198f, -0.0034f, 0.0102f, -0.0039f, 0.0168f, 0.0041f, 0.0031f, -0.0016f, -0.0008f, -0.0014f, -0.0030f, 0.0054f, -0.0094f, -0.0107f, -0.0116f, 0.0187f, 0.0051f, 0.0019f, -0.0118f, 0.0046f, -0.0007f, 0.0019f, -0.0103f, 0.0013f, -0.0044f, -0.0082f, 0.0063f, -0.0134f, 0.0053f, 0.0069f, -0.0094f, -0.0095f, -0.0017f, 0.0030f, 0.0012f, 0.0034f, 0.0173f, -0.0051f, -0.0176f, 0.0077f, 0.0155f, 0.0029f, -0.0119f, -0.0012f, -0.0097f, 0.0065f, -0.0133f, -0.0030f, -0.0101f, 0.0030f, -0.0028f, 0.0039f, 0.0000f, -0.0114f, 0.0091f, 0.0001f, -0.0090f, 0.0212f, 0.0048f, -0.0014f, 0.0148f, 0.0191f, -0.0014f, 0.0050f, -0.0099f, -0.0022f, -0.0020f, 0.0016f, 0.0056f, 0.0065f, 0.0034f, -0.0121f, -0.0078f, -0.0054f, -0.0027f, 0.0105f, -0.0117f, -0.0021f, 0.0078f, -0.0030f},
    {0.0043f, 0.0002f, 0.0021f, -0.0023f, 0.0095f, -0.0159f, -0.0043f, 0.0033f, 0.0050f, 0.0148f, -0.0050f, 0.0132f, -0.0066f, 0.0124f, 0.0088f, -0.0081f, 0.0026f, -0.0003f, 0.0070f, -0.0031f, -0.0013f, 0.0128f, 0.0026f, 0.0082f, -0.0014f, 0.0167f, -0.0089f, -0.0063f, 0.0131f, -0.0047f, 0.0169f, 0.0096f, -0.0014f, -0.0181f, 0.0003f, 0.0011f, 0.0107f, 0.0216f, -0.0045f, 0.0084f, 0.0070f, 0.0108f, 0.0059f, -0.0195f, -0.0012f, -0.0087f, -0.0027f, 0.0104f, 0.0053f, 0.0119f, 0.0041f, -0.0130f, -0.0260f, 0.0013f, -0.0025f, -0.0102f, -0.0171f, -0.0058f, -0.0019f, 0.0067f, 0.0019f, 0.0161f, -0.0108f, 0.0070f, 0.0001f, 0.0055f, -0.0061f, 0.0089f, 0.0035f, -0.0072f, -0.0009f, -0.0028f, 0.0047f, -0.0126f, -0.0016f, 0.0065f, -0.0001f, 0.0136f, 0.0070f, -0.0016f, 0.0028f, 0.0031f, 0.0075f, -0.0194f, -0.0034f, -0.0149f, 0.0122f, -0.0013f, -0.0038f, 0.0078f, 0.0030f, -0.0112f, 0.0012f, -0.0032f, -0.0172f, -0.0069f, -0.0019f, 0.0011f, -0.0137f, 0.0142f, -0.0013f, -0.0016f, 0.0077f, -0.0072f, 0.0055f, -0.0051f, -0.0089f, 0.0059f, 0.0158f, 0.0081f, 0.0093f, -0.0032f, -0.0159f, 0.0139f, 0.0205f, 0.0151f, -0.0004f, -0.0104f, -0.0094f, -0.0168f, 0.0008f, 0.0161f, -0.0012f, 0.0030f, 0.0137f, -0.0022f, 0.0182f, 0.0199f},
    {-0.0017f, -0.0040f, 0.0065f, -0.0035f, -0.0084f, 0.0124f, 0.0111f, 0.0019f, -0.0131f, -0.0124f, -0.0002f, -0.0066f, -0.0034f, 0.0092f, 0.0080f, 0.0149f, -0.0105f, -0.0032f, 0.0085f, 0.0035f, 0.0173f, 0.0032f, 0.0226f, 0.0053f, 0.0119f, -0.0032f, -0.0022f, 0.0089f, 0.0137f, 0.0071f, 0.0002f, 0.0145f, -0.0218f, -0.0142f, 0.0074f, 0.0002f, 0.0050f, 0.0071f, 0.0085f, -0.0077f, 0.0050f, 0.0100f, 0.0133f, 0.0200f, 0.0028f, 0.0060f, -0.0161f, -0.0047f, 0.0006f, 0.0110f, -0.0054f, 0.0079f, -0.0011f, -0.0020f, 0.0021f, -0.0044f, -0.0044f, -0.0152f, -0.0025f, -0.0047f, -0.0051f, 0.0043f, 0.0062f, 0.0005f, 0.0095f, 0.0042f, -0.0049f, -0.0064f, 0.0038f, 0.0053f, 0.0129f, 0.0114f, -0.0056f, -0.0019f, 0.0053f, 0.0135f, 0.0090f, -0.0005f, -0.0134f, -0.0116f, 0.0034f, 0.0035f, -0.0071f, -0.0008f, 0.0058f, -0.0116f, 0.0103f, -0.0045f, 0.0103f, -0.0066f, -0.0116f, -0.0045f, 0.0014f, -0.0037f, -0.0018f, 0.0034f, -0.0017f, 0.0019f, -0.0158f, 0.0069f, -0.0011f, 0.0141f, -0.0051f, -0.0173f, 0.0072f, 0.0019f, -0.0100f, -0.0152f, 0.0164f, 0.0151f, -0.0248f, -0.0023f, 0.0167f, -0.0059f, -0.0049f, -0.0032f, -0.0079f, -0.0157f, 0.0120f, -0.0184f, 0.0046f, 0.0088f, -0.0143f, -0.0092f, 0.0121f, 0.0075f, -0.0086f, 0.0120f},
    {0.0116f, 0.0045f, -0.0095f, -0.0041f, 0.0061f, -0.0023f, 0.0079f, -0.0150f, -0.0155f, 0.0017f, -0.0060f, -0.0082f, -0.0177f, -0.0009f, 0.0003f, 0.0078f, 0.0001f, -0.0010f, 0.0127f, -0.0141f, 0.0075f, -0.0177f, -0.0041f, -0.0122f, 0.0095f, -0.0006f, -0.0026f, -0.0112f, -0.0055f, -0.0078f, 0.0049f, -0.0092f, 0.0134f, -0.0168f, -0.0075f, 0.0169f, -0.0052f, -0.0064f, 0.0051f, -0.0043f, -0.0090f, -0.0109f, 0.0288f, -0.0026f, -0.0189f, 0.0185f, 0.0050f, -0.0070f, -0.0067f, 0.0073f, -0.0017f, -0.0193f, 0.0165f, -0.0046f, 0.0145f, 0.0122f, -0.0102f, 0.0124f, -0.0065f, -0.0186f, -0.0042f, 0.0040f, -0.0050f, -0.0048f, 0.0109f, -0.0007f, -0.0104f, 0.0053f, 0.0027f, -0.0256f, 0.0031f, 0.0034f, 0.0001f, 0.0079f, -0.0079f, 0.0063f, -0.0159f, 0.0042f, 0.0185f, -0.0116f, -0.0071f, -0.0071f, 0.0053f, -0.0120f, 0.0037f, 0.0084f, 0.0045f, -0.0183f, 0.0075f, 0.0081f, 0.0069f, 0.0038f, 0.0049f, 0.0105f, 0.0196f, -0.0095f, 0.0108f, 0.0019f, -0.0000f, -0.0123f, -0.0031f, -0.0115f, -0.0001f, -0.0102f, -0.0036f, -0.0057f, 0.0011f, -0.0160f, -0.0133f, 0.0046f, -0.0078f, 0.0131f, 0.0023f, 0.0049f, 0.0141f, -0.0034f, -0.0023f, 0.0102f, 0.0067f, -0.0019f, 0.0161f, -0.0022f, 0.0007f, 0.0002f, -0.0094f, 0.0031f, 0.0115f, 0.0045f},
    {-0.0002f, 0.0001f, 0.0029f, 0.0075f, 0.0091f, -0.0038f, 0.0017f, 0.0051f, -0.0107f, 0.0016f, -0.0224f, 0.0028f, 0.0066f, 0.0064f, -0.0032f, 0.0044f, 0.0136f, 0.0145f, 0.0006f, 0.0006f, 0.0131f, -0.0159f, 0.0007f, 0.0133f, 0.0114f, 0.0037f, -0.0172f, -0.0006f, -0.0083f, 0.0031f, -0.0071f, -0.0097f, -0.0205f, 0.0120f, -0.0034f, 0.0017f, -0.0007f, -0.0045f, -0.0098f, -0.0097f, -0.0078f, 0.0036f, -0.0069f, 0.0174f, 0.0106f, 0.0115f, -0.0022f, 0.0158f, 0.0003f, 0.0002f, 0.0025f, 0.0070f, 0.0050f, -0.0049f, -0.0057f, 0.0059f, 0.0069f, -0.0020f, -0.0159f, -0.0020f, 0.0063f, 0.0181f, -0.0122f, -0.0060f, -0.0044f, 0.0116f, -0.0020f, -0.0108f, 0.0062f, -0.0044f, -0.0133f, -0.0095f, 0.0173f, 0.0029f, 0.0001f, 0.0003f, 0.0028f, 0.0029f, 0.0020f, -0.0006f, 0.0091f, 0.0003f, -0.0060f, -0.0077f, -0.0203f, 0.0203f, 0.0078f, -0.0088f, -0.0050f, -0.0076f, 0.0140f, -0.0142f, 0.0037f, -0.0009f, 0.0085f, -0.0010f, -0.0176f, 0.0002f, -0.0086f, 0.0036f, 0.0141f, -0.0184f, -0.0037f, -0.0048f, -0.0031f, 0.0057f, -0.0016f, 0.0043f, -0.0052f, 0.0033f, 0.0079f, -0.0052f, 0.0078f, -0.0005f, 0.0105f, -0.0023f, 0.0071f, 0.0010f, 0.0005f, 0.0026f, 0.0073f, -0.0126f, 0.0147f, -0.0186f, -0.0069f, 0.0012f, 0.0019f, 0.0158f},
    {-0.0191f, -0.0035f, -0.0216f, 0.0003f, 0.0052f, 0.0154f, -0.0002f, 0.0107f, 0.0053f, -0.0044f, -0.0147f, 0.0010f, -0.0149f, 0.0120f, -0.0009f, 0.0131f, -0.0053f, 0.0030f, 0.0028f, -0.0011f, -0.0026f, 0.0032f, -0.0060f, -0.0121f, 0.0138f, 0.0073f, -0.0011f, 0.0165f, -0.0047f, 0.0129f, 0.0026f, -0.0097f, 0.0186f, 0.0096f, -0.0007f, 0.0074f, -0.0046f, 0.0135f, -0.0215f, -0.0099f, 0.0093f, -0.0026f, 0.0029f, -0.0135f, 0.0188f, 0.0149f, -0.0028f, -0.0035f, 0.0124f, 0.0202f, 0.0102f, 0.0217f, -0.0105f, -0.0084f, -0.0122f, 0.0040f, 0.0015f, 0.0001f, 0.0081f, 0.0124f, -0.0152f, -0.0060f, 0.0080f, -0.0064f, -0.0084f, 0.0084f, -0.0141f, -0.0048f, 0.0038f, -0.0061f, 0.0069f, -0.0062f, 0.0141f, -0.0020f, 0.0059f, 0.0098f, -0.0065f, -0.0205f, 0.0028f, -0.0011f, 0.0058f, -0.0023f, -0.0011f, 0.0184f, -0.0151f, 0.0073f, -0.0064f, -0.0037f, -0.0050f, -0.0090f, 0.0046f, 0.0139f, 0.0069f, 0.0011f, -0.0097f, 0.0053f, 0.0216f, -0.0015f, -0.0028f, -0.0033f, -0.0050f, -0.0281f, 0.0077f, -0.0078f, -0.0155f, 0.0060f, -0.0106f, -0.0032f, 0.0156f, -0.0133f, -0.0152f, 0.0045f, 0.0115f, -0.0166f, 0.0041f, 0.0056f, -0.0178f, 0.0092f, 0.0100f, -0.0031f, 0.0141f, 0.0112f, 0.0014f, -0.0045f, -0.0098f, 0.0015f, 0.0039f, -0.0032f},
    {-0.0224f, 0.0139f, 0.0017f, -0.0038f, 0.0104f, 0.0148f, -0.0292f, 0.0045f, -0.0146f, 0.0050f, 0.0008f, 0.0052f, -0.0050f, -0.0195f, -0.0040f, 0.0049f, 0.0097f, -0.0114f, 0.0108f, -0.0069f, 0.0049f, -0.0056f, 0.0042f, 0.0088f, -0.0114f, -0.0068f, 0.0006f, 0.0239f, -0.0101f, 0.0202f, 0.0207f, -0.0006f, -0.0029f, -0.0071f, -0.0003f, -0.0140f, -0.0013f, 0.0188f, -0.0043f, -0.0022f, -0.0174f, 0.0037f, 0.0033f, 0.0006f, -0.0020f, -0.0007f, 0.0045f, 0.0001f, 0.0047f, 0.0025f, 0.0117f, 0.0068f, 0.0009f, 0.0150f, 0.0040f, 0.0127f, 0.0059f, -0.0172f, 0.0131f, 0.0014f, -0.0005f, 0.0028f, -0.0037f, 0.0008f, -0.0063f, 0.0114f, -0.0020f, -0.0054f, -0.0089f, 0.0024f, 0.0012f, 0.0035f, -0.0103f, -0.0166f, 0.0056f, 0.0166f, -0.0105f, 0.0160f, 0.0022f, -0.0016f, -0.0038f, -0.0138f, 0.0123f, -0.0091f, -0.0080f, 0.0099f, -0.0193f, -0.0154f, -0.0016f, 0.0023f, 0.0040f, -0.0030f, 0.0269f, -0.0022f, -0.0022f, -0.0079f, 0.0012f, 0.0079f, 0.0127f, -0.0132f, -0.0026f, 0.0040f, 0.0086f, 0.0005f, 0.0058f, -0.0093f, 0.0157f, 0.0101f, -0.0127f, -0.0102f, -0.0104f, 0.0081f, -0.0129f, -0.0039f, 0.0045f, -0.0008f, 0.0046f, -0.0097f, 0.0068f, -0.0061f, -0.0021f, 0.0022f, 0.0013f, 0.0002f, -0.0075f, -0.0017f, -0.0012f, -0.0138f},
    {-0.0049f, 0.0046f, -0.0129f, 0.0116f, 0.0138f, -0.0127f, 0.0128f, -0.0014f, 0.0040f, -0.0050f, 0.0090f, 0.0034f, -0.0081f, -0.0121f, -0.0143f, 0.0024f, 0.0055f, 0.0067f, -0.0009f, -0.0118f, -0.0061f, 0.0113f, -0.0034f, 0.0014f, -0.0103f, 0.0034f, -0.0053f, 0.0104f, 0.0069f, -0.0050f, -0.0009f, -0.0053f, -0.0142f, -0.0087f, 0.0022f, 0.0033f, 0.0011f, -0.0008f, 0.0104f, 0.0007f, 0.0068f, -0.0178f, -0.0389f, 0.0028f, -0.0141f, -0.0008f, -0.0033f, 0.0161f, 0.0049f, 0.0018f, 0.0087f, 0.0037f, -0.0052f, 0.0106f, -0.0112f, 0.0030f, -0.0156f, 0.0027f, 0.0019f, 0.0168f, -0.0156f, -0.0060f, 0.0080f, 0.0024f, 0.0016f, -0.0104f, -0.0065f, 0.0113f, -0.0003f, 0.0036f, -0.0015f, -0.0121f, 0.0094f, 0.0047f, 0.0226f, -0.0091f, 0.0081f, -0.0131f, 0.0012f, 0.0088f, -0.0207f, -0.0020f, -0.0042f, -0.0079f, 0.0037f, 0.0112f, -0.0016f, 0.0019f, 0.0003f, -0.0003f, -0.0114f, 0.0111f, 0.0038f, 0.0040f, -0.0080f, -0.0046f, -0.0018f, -0.0143f, -0.0165f, -0.0050f, 0.0052f, -0.0068f, -0.0086f, -0.0078f, -0.0044f, -0.0043f, 0.0217f, 0.0106f, 0.0107f, 0.0120f, -0.0100f, -0.0114f, -0.0111f, 0.0130f, -0.0055f, -0.0126f, -0.0031f, -0.0018f, 0.0032f, 0.0025f, -0.0076f, 0.0068f, -0.0062f, -0.0016f, 0.0069f, -0.0056f, -0.0065f, 0.0059f},
    {-0.0087f, -0.0034f, 0.0055f, 0.0205f, 0.0066f, 0.0046f, 0.0049f, -0.0107f, 0.0010f, -0.0003f, 0.0031f, 0.0009f, 0.0038f, -0.0034f, 0.0007f, -0.0120f, -0.0033f, 0.0140f, 0.0034f, -0.0003f, 0.0194f, -0.0137f, -0.0103f, 0.0171f, 0.0007f, -0.0024f, -0.0123f, 0.0045f, 0.0050f, -0.0110f, -0.0012f, -0.0032f, 0.0026f, -0.0112f, 0.0127f, 0.0092f, -0.0038f, -0.0010f, -0.0008f, -0.0077f, -0.0045f, -0.0027f, 0.0163f, 0.0095f, 0.0094f, 0.0044f, -0.0113f, -0.0003f, 0.0102f, -0.0125f, 0.0065f, 0.0232f, 0.0103f, 0.0141f, 0.0021f, 0.0096f, -0.0073f, 0.0083f, 0.0065f, 0.0029f, 0.0132f, -0.0054f, -0.0020f, 0.0004f, -0.0104f, 0.0018f, -0.0175f, 0.0098f, 0.0006f, -0.0053f, -0.0085f, -0.0025f, 0.0069f, 0.0053f, -0.0073f, -0.0079f, 0.0065f, -0.0072f, 0.0004f, 0.0007f, 0.0032f, 0.0086f, -0.0119f, -0.0196f, -0.0058f, 0.0180f, 0.0201f, 0.0183f, -0.0024f, -0.0180f, -0.0237f, -0.0061f, -0.0015f, 0.0130f, 0.0087f, 0.0023f, -0.0089f, -0.0091f, 0.0028f, 0.0075f, 0.0039f, -0.0105f, 0.0074f, 0.0044f, -0.0106f, -0.0082f, 0.0069f, -0.0023f, 0.0161f, 0.0052f, -0.0049f, 0.0003f, 0.0006f, -0.0075f, -0.0091f, 0.0070f, 0.0091f, 0.0063f, 0.0154f, -0.0054f, 0.0171f, -0.0091f, -0.0100f, -0.0176f, -0.0045f, -0.0046f, 0.0048f, 0.0024f},
    {-0.0120f, -0.0037f, -0.0037f, -0.0178f, -0.0095f, -0.0078f, 0.0141f, 0.0019f, 0.0066f, -0.0150f, 0.0119f, 0.0129f, -0.0200f, -0.0072f, 0.0050f, 0.0066f, -0.0068f, -0.0030f, -0.0059f, 0.0010f, 0.0122f, -0.0078f, 0.0104f, -0.0078f, -0.0084f, 0.0082f, 0.0091f, 0.0085f, -0.0134f, -0.0047f, 0.0083f, 0.0005f, -0.0107f, 0.0046f, -0.0071f, 0.0180f, 0.0153f, 0.0066f, 0.0139f, 0.0007f, 0.0076f, 0.0148f, 0.0026f, -0.0026f, -0.0170f, -0.0005f, 0.0081f, 0.0095f, 0.0053f, -0.0054f, -0.0197f, -0.0050f, -0.0032f, -0.0032f, 0.0061f, 0.0198f, 0.0012f, -0.0020f, -0.0026f, 0.0012f, -0.0083f, 0.0012f, 0.0045f, 0.0018f, 0.0045f, 0.0041f, -0.0178f, 0.0061f, -0.0067f, -0.0110f, -0.0111f, 0.0043f, -0.0022f, -0.0169f, 0.0047f, -0.0141f, 0.0014f, 0.0024f, 0.0087f, 0.0176f, -0.0136f, -0.0005f, -0.0024f, 0.0041f, 0.0021f, -0.0035f, -0.0045f, -0.0112f, 0.0097f, 0.0045f, 0.0090f, -0.0031f, -0.0064f, -0.0108f, 0.0036f, -0.0104f, 0.0185f, -0.0128f, 0.0028f, 0.0159f, 0.0060f, 0.0017f, -0.0093f, -0.0137f, 0.0078f, 0.0149f, -0.0044f, -0.0114f, -0.0245f, -0.0097f, -0.0011f, 0.0162f, 0.0067f, 0.0030f, -0.0040f, -0.0058f, 0.0144f, 0.0022f, -0.0209f, -0.0067f, -0.0084f, -0.0055f, 0.0057f, -0.0011f, -0.0008f, 0.0133f, -0.0072f, 0.0186f},
    {-0.0067f, 0.0010f, -0.0028f, 0.0012f, 0.0045f, 0.0043f, -0.0076f, -0.0112f, 0.0250f, -0.0048f, 0.0070f, -0.0161f, -0.0028f, -0.0013f, 0.0047f, -0.0272f, 0.0016f, -0.0115f, 0.0033f, -0.0104f, -0.0085f, -0.0028f, -0.0104f, -0.0048f, -0.0119f, -0.0183f, 0.0101f, -0.0130f, -0.0019f, 0.0075f, -0.0061f, -0.0082f, 0.0023f, 0.0112f, -0.0117f, -0.0015f, -0.0174f, -0.0038f, 0.0004f, -0.0085f, -0.0046f, -0.0141f, 0.0008f, 0.0106f, -0.0110f, -0.0061f, 0.0050f, 0.0121f, -0.0149f, -0.0017f, 0.0028f, -0.0010f, -0.0248f, 0.0050f, 0.0152f, 0.0012f, -0.0103f, -0.0051f, 0.0177f, 0.0091f, 0.0064f, 0.0036f, -0.0066f, -0.0021f, -0.0008f, 0.0054f, 0.0150f, 0.0111f, -0.0142f, 0.0022f, 0.0073f, 0.0062f, -0.0063f, 0.0291f, -0.0128f, -0.0108f, 0.0023f, 0.0212f, -0.0084f, -0.0027f, 0.0108f, -0.0002f, -0.0032f, 0.0056f, 0.0027f, 0.0103f, 0.0129f, 0.0031f, 0.0029f, 0.0021f, 0.0049f, 0.0006f, 0.0001f, 0.0120f, 0.0152f, -0.0151f, 0.0001f, -0.0068f, -0.0031f, 0.0041f, 0.0067f, -0.0011f, -0.0190f, -0.0096f, 0.0090f, -0.0275f, 0.0119f, 0.0052f, 0.0132f, -0.0020f, -0.0206f, 0.0044f, 0.0127f, 0.0092f, -0.0066f, 0.0009f, -0.0052f, -0.0081f, 0.0096f, -0.0120f, -0.0089f, -0.0110f, -0.0149f, 0.0015f, 0.0116f, -0.0018f, -0.0151f, 0.0084f},
    {0.0169f, -0.0064f, -0.0048f, 0.0052f, 0.0163f, -0.0052f, -0.0133f, 0.0063f, 0.0080f, 0.0001f, -0.0056f, 0.0099f, 0.0053f, -0.0077f, 0.0005f, -0.0135f, 0.0068f, -0.0026f, -0.0043f, -0.0003f, 0.0004f, 0.0089f, 0.0060f, -0.0016f, 0.0076f, 0.0040f, -0.0043f, -0.0012f, -0.0015f, 0.0051f, -0.0037f, -0.0039f, 0.0197f, 0.0094f, -0.0076f, 0.0057f, 0.0012f, 0.0040f, 0.0014f, 0.0119f, 0.0034f, -0.0006f, 0.0104f, 0.0023f, 0.0012f, 0.0032f, -0.0009f, 0.0001f, -0.0058f, -0.0075f, -0.0100f, -0.0139f, -0.0088f, -0.0017f, 0.0010f, -0.0027f, -0.0236f, 0.0158f, 0.0109f, 0.0045f, 0.0191f, -0.0098f, 0.0189f, -0.0097f, 0.0024f, -0.0128f, 0.0001f, 0.0038f, -0.0015f, 0.0071f, 0.0010f, -0.0052f, -0.0057f, 0.0081f, -0.0065f, 0.0092f, 0.0122f, -0.0167f, 0.0113f, 0.0206f, 0.0025f, 0.0060f, 0.0104f, -0.0028f, 0.0018f, -0.0131f, 0.0014f, 0.0050f, 0.0051f, 0.0106f, -0.0078f, -0.0053f, 0.0190f, -0.0015f, 0.0020f, -0.0007f, -0.0082f, 0.0163f, -0.0053f, -0.0112f, -0.0045f, -0.0200f, -0.0065f, -0.0097f, 0.0062f, -0.0068f, 0.0089f, 0.0140f, 0.0078f, -0.0021f, 0.0014f, -0.0152f, -0.0013f, -0.0086f, 0.0069f, 0.0257f, 0.0050f, -0.0199f, -0.0036f, 0.0012f, 0.0009f, -0.0073f, 0.0025f, -0.0124f, -0.0094f, 0.0065f, -0.0102f, 0.0054f},
